TreeEnsembleModel regressor with 100 trees

  Tree 0:
    If (feature 128 <= 52.829998)
     If (feature 140 <= 37.079998)
      If (feature 1 <= 33.929998499999996)
       If (feature 84 <= 40.8599985)
        If (feature 0 <= 32.039998)
         Predict: 37.9686697272727
        Else (feature 0 > 32.039998)
         Predict: 37.918320090909106
       Else (feature 84 > 40.8599985)
        Predict: 37.82894951048951
      Else (feature 1 > 33.929998499999996)
       Predict: 38.76419404195801
     Else (feature 140 > 37.079998)
      If (feature 133 <= 44.279998500000005)
       Predict: 40.618320055944
      Else (feature 133 > 44.279998500000005)
       If (feature 93 <= 36.539999)
        Predict: 39.7724456153846
       Else (feature 93 > 36.539999)
        Predict: 39.3079702097902
    Else (feature 128 > 52.829998)
     If (feature 49 <= 85.3199995)
      If (feature 89 <= 41.9399985)
       Predict: 67.2293675734266
      Else (feature 89 > 41.9399985)
       Predict: 68.222094965035
     Else (feature 49 > 85.3199995)
      If (feature 49 <= 88.379997)
       If (feature 80 <= 65.33999650000001)
        Predict: 71.5053115734265
       Else (feature 80 > 65.33999650000001)
        Predict: 71.6391578251748
      Else (feature 49 > 88.379997)
       Predict: 72.25426274125871
  Tree 1:
    If (feature 98 <= 81.4499965)
     If (feature 64 <= 43.65)
      If (feature 3 <= 31.7699985)
       If (feature 87 <= 36.629997)
        Predict: 37.1794390559441
       Else (feature 87 > 36.629997)
        Predict: 37.9686697272727
      Else (feature 3 > 31.7699985)
       If (feature 89 <= 37.3499985)
        Predict: 38.764194041958
       Else (feature 89 > 37.3499985)
        Predict: 39.3079702097902
     Else (feature 64 > 43.65)
      Predict: 45.1434945804196
    Else (feature 98 > 81.4499965)
     If (feature 102 <= 91.16999849999999)
      Predict: 55.52307444055939
     Else (feature 102 > 91.16999849999999)
      If (feature 14 <= 49.769996500000005)
       If (feature 64 <= 73.3499985)
        Predict: 68.222094965035
       Else (feature 64 > 73.3499985)
        Predict: 66.85426309090909
      Else (feature 14 > 49.769996500000005)
       If (feature 0 <= 54.0899965)
        If (feature 128 <= 80.5499995)
         Predict: 70.7777588741259
        Else (feature 128 > 80.5499995)
         Predict: 71.50531157342651
       Else (feature 0 > 54.0899965)
        If (feature 134 <= 66.95999900000001)
         Predict: 72.2542627412587
        Else (feature 134 > 66.95999900000001)
         Predict: 72.2576192657343
  Tree 2:
    If (feature 124 <= 81.9899975)
     If (feature 31 <= 40.679998499999996)
      If (feature 135 <= 40.5899985)
       If (feature 33 <= 28.259998500000002)
        If (feature 0 <= 32.039998)
         Predict: 37.9686697272727
        Else (feature 0 > 32.039998)
         Predict: 37.82894951048951
       Else (feature 33 > 28.259998500000002)
        If (feature 126 <= 50.8499985)
         Predict: 37.330487983682964
        Else (feature 126 > 50.8499985)
         Predict: 37.918320090909106
      Else (feature 135 > 40.5899985)
       If (feature 98 <= 41.039999)
        Predict: 38.764194041958
       Else (feature 98 > 41.039999)
        Predict: 39.307970209790206
     Else (feature 31 > 40.679998499999996)
      Predict: 45.1434945804196
    Else (feature 124 > 81.9899975)
     If (feature 10 <= 51.029998500000005)
      If (feature 67 <= 69.3899955)
       If (feature 123 <= 90.53999350000001)
        If (feature 111 <= 92.069996)
         Predict: 67.9229339090909
        Else (feature 111 > 92.069996)
         Predict: 68.22209496503498
       Else (feature 123 > 90.53999350000001)
        Predict: 66.85426309090911
      Else (feature 67 > 69.3899955)
       If (feature 116 <= 94.049999)
        Predict: 71.6509058601399
       Else (feature 116 > 94.049999)
        Predict: 71.6391578251748
     Else (feature 10 > 51.029998500000005)
      Predict: 55.52307444055941
  Tree 3:
    If (feature 122 <= 59.4899975)
     If (feature 93 <= 40.1399975)
      If (feature 4 <= 30.419998)
       If (feature 0 <= 32.039998)
        Predict: 37.9686697272727
       Else (feature 0 > 32.039998)
        Predict: 37.8289495104895
      Else (feature 4 > 30.419998)
       If (feature 3 <= 31.7699985)
        Predict: 38.3362222727273
       Else (feature 3 > 31.7699985)
        Predict: 38.76419404195801
     Else (feature 93 > 40.1399975)
      If (feature 101 <= 57.419996)
       Predict: 39.3079702097902
      Else (feature 101 > 57.419996)
       Predict: 40.618320055944
    Else (feature 122 > 59.4899975)
     If (feature 8 <= 51.2999995)
      If (feature 101 <= 48.509997999999996)
       Predict: 67.2293675734266
      Else (feature 101 > 48.509997999999996)
       If (feature 128 <= 80.5499995)
        Predict: 70.7777588741259
       Else (feature 128 > 80.5499995)
        If (feature 72 <= 61.829998)
         Predict: 72.2542627412587
        Else (feature 72 > 61.829998)
         Predict: 71.53443043076918
     Else (feature 8 > 51.2999995)
      Predict: 55.52307444055941
  Tree 4:
    If (feature 80 <= 55.3499985)
     If (feature 124 <= 51.3899975)
      If (feature 94 <= 38.699999000000005)
       If (feature 73 <= 42.569998)
        Predict: 38.764194041958
       Else (feature 73 > 42.569998)
        Predict: 38.3362222727273
      Else (feature 94 > 38.699999000000005)
       If (feature 90 <= 37.8899995)
        Predict: 37.1794390559441
       Else (feature 90 > 37.8899995)
        If (feature 124 <= 49.2299975)
         Predict: 37.8289495104895
        Else (feature 124 > 49.2299975)
         Predict: 37.9183200909091
     Else (feature 124 > 51.3899975)
      If (feature 1 <= 50.66999800000001)
       If (feature 57 <= 39.8699985)
        Predict: 39.3079702097902
       Else (feature 57 > 39.8699985)
        Predict: 39.7724456153846
      Else (feature 1 > 50.66999800000001)
       Predict: 40.618320055944
    Else (feature 80 > 55.3499985)
     If (feature 9 <= 50.3999975)
      If (feature 110 <= 92.699997)
       If (feature 111 <= 92.069996)
        Predict: 67.9229339090909
       Else (feature 111 > 92.069996)
        Predict: 68.22209496503501
      Else (feature 110 > 92.699997)
       If (feature 133 <= 68.6699945)
        Predict: 72.2542627412587
       Else (feature 133 > 68.6699945)
        If (feature 115 <= 91.70999499999999)
         Predict: 71.6509058601399
        Else (feature 115 > 91.70999499999999)
         Predict: 71.63915782517479
     Else (feature 9 > 50.3999975)
      Predict: 55.52307444055941
  Tree 5:
    If (feature 98 <= 81.4499965)
     If (feature 6 <= 32.579999)
      If (feature 105 <= 50.2199975)
       If (feature 117 <= 50.3999975)
        If (feature 62 <= 40.499998000000005)
         Predict: 38.3362222727273
        Else (feature 62 > 40.499998000000005)
         Predict: 38.76419404195801
       Else (feature 117 > 50.3999975)
        Predict: 39.77244561538461
      Else (feature 105 > 50.2199975)
       If (feature 4 <= 30.419998)
        If (feature 64 <= 37.3499985)
         Predict: 37.9686697272727
        Else (feature 64 > 37.3499985)
         Predict: 37.8289495104895
       Else (feature 4 > 30.419998)
        If (feature 0 <= 33.5699995)
         Predict: 37.1794390559441
        Else (feature 0 > 33.5699995)
         Predict: 37.4060124475524
     Else (feature 6 > 32.579999)
      Predict: 45.1434945804196
    Else (feature 98 > 81.4499965)
     If (feature 65 <= 72.989998)
      If (feature 80 <= 67.409996)
       If (feature 137 <= 62.4599975)
        Predict: 70.7777588741259
       Else (feature 137 > 62.4599975)
        If (feature 94 <= 81.989994)
         Predict: 72.2542627412587
        Else (feature 94 > 81.989994)
         Predict: 71.57810871678322
      Else (feature 80 > 67.409996)
       If (feature 81 <= 70.6499975)
        Predict: 67.9229339090909
       Else (feature 81 > 70.6499975)
        Predict: 68.22209496503498
     Else (feature 65 > 72.989998)
      Predict: 55.52307444055941
  Tree 6:
    If (feature 129 <= 52.019996500000005)
     If (feature 140 <= 36.629997)
      If (feature 60 <= 35.009997999999996)
       Predict: 37.1794390559441
      Else (feature 60 > 35.009997999999996)
       If (feature 93 <= 37.9799995)
        Predict: 38.3362222727273
       Else (feature 93 > 37.9799995)
        If (feature 0 <= 32.039998)
         Predict: 37.9686697272727
        Else (feature 0 > 32.039998)
         Predict: 37.918320090909106
     Else (feature 140 > 36.629997)
      If (feature 65 <= 36.8999995)
       If (feature 116 <= 53.6399975)
        Predict: 39.7724456153846
       Else (feature 116 > 53.6399975)
        Predict: 39.3079702097902
      Else (feature 65 > 36.8999995)
       Predict: 38.76419404195801
    Else (feature 129 > 52.019996500000005)
     If (feature 9 <= 50.3999975)
      If (feature 132 <= 68.849995)
       If (feature 108 <= 54.9899975)
        Predict: 67.2293675734266
       Else (feature 108 > 54.9899975)
        Predict: 67.92293390909089
      Else (feature 132 > 68.849995)
       If (feature 73 <= 56.969997500000005)
        Predict: 72.2542627412587
       Else (feature 73 > 56.969997500000005)
        If (feature 89 <= 83.9699975)
         Predict: 71.5053115734265
        Else (feature 89 > 83.9699975)
         Predict: 71.64307383682983
     Else (feature 9 > 50.3999975)
      If (feature 4 <= 52.3799975)
       Predict: 55.5230744405594
      Else (feature 4 > 52.3799975)
       Predict: 45.1434945804196
  Tree 7:
    If (feature 128 <= 52.829998)
     If (feature 100 <= 45.8099975)
      If (feature 0 <= 33.5699995)
       If (feature 102 <= 50.489998)
        If (feature 0 <= 32.039998)
         Predict: 37.9686697272727
        Else (feature 0 > 32.039998)
         Predict: 37.8289495104895
       Else (feature 102 > 50.489998)
        Predict: 37.179439055944115
      Else (feature 0 > 33.5699995)
       Predict: 38.76419404195801
     Else (feature 100 > 45.8099975)
      If (feature 92 <= 41.8499985)
       If (feature 120 <= 52.829998)
        Predict: 39.7724456153846
       Else (feature 120 > 52.829998)
        Predict: 39.3079702097902
      Else (feature 92 > 41.8499985)
       Predict: 40.618320055944
    Else (feature 128 > 52.829998)
     If (feature 3 <= 53.0999965)
      If (feature 133 <= 65.159996)
       If (feature 120 <= 59.3099975)
        Predict: 67.2293675734266
       Else (feature 120 > 59.3099975)
        Predict: 68.222094965035
      Else (feature 133 > 65.159996)
       If (feature 68 <= 67.499996)
        Predict: 72.2542627412587
       Else (feature 68 > 67.499996)
        If (feature 111 <= 91.1699945)
         Predict: 71.5053115734265
        Else (feature 111 > 91.1699945)
         Predict: 71.64307383682983
     Else (feature 3 > 53.0999965)
      If (feature 7 <= 51.569998)
       Predict: 55.52307444055939
      Else (feature 7 > 51.569998)
       Predict: 45.1434945804196
  Tree 8:
    If (feature 135 <= 64.0799965)
     If (feature 55 <= 38.429998499999996)
      Predict: 67.2293675734266
     Else (feature 55 > 38.429998499999996)
      If (feature 3 <= 50.759998499999995)
       If (feature 125 <= 50.579998)
        If (feature 102 <= 48.059997499999994)
         Predict: 38.62153678554777
        Else (feature 102 > 48.059997499999994)
         Predict: 37.62100543216779
       Else (feature 125 > 50.579998)
        If (feature 134 <= 42.119999)
         Predict: 40.618320055944
        Else (feature 134 > 42.119999)
         Predict: 39.679550534265715
      Else (feature 3 > 50.759998499999995)
       Predict: 45.14349458041958
    Else (feature 135 > 64.0799965)
     If (feature 10 <= 49.8599965)
      If (feature 9 <= 48.8699985)
       If (feature 71 <= 63.449996999999996)
        Predict: 67.9229339090909
       Else (feature 71 > 63.449996999999996)
        Predict: 68.22209496503501
      Else (feature 9 > 48.8699985)
       Predict: 66.85426309090911
     Else (feature 10 > 49.8599965)
      If (feature 83 <= 70.82999799999999)
       Predict: 72.2576192657343
      Else (feature 83 > 70.82999799999999)
       If (feature 123 <= 87.02999500000001)
        Predict: 71.5053115734265
       Else (feature 123 > 87.02999500000001)
        Predict: 71.6391578251748
  Tree 9:
    If (feature 65 <= 56.5199985)
     If (feature 123 <= 52.199996999999996)
      If (feature 138 <= 38.25)
       If (feature 89 <= 35.819998)
        Predict: 37.1794390559441
       Else (feature 89 > 35.819998)
        If (feature 86 <= 39.2399975)
         Predict: 37.9434949090909
        Else (feature 86 > 39.2399975)
         Predict: 37.82894951048951
      Else (feature 138 > 38.25)
       If (feature 0 <= 34.0199985)
        Predict: 38.3362222727273
       Else (feature 0 > 34.0199985)
        Predict: 38.764194041958
     Else (feature 123 > 52.199996999999996)
      If (feature 115 <= 53.729997499999996)
       Predict: 39.7724456153846
      Else (feature 115 > 53.729997499999996)
       Predict: 39.3079702097902
    Else (feature 65 > 56.5199985)
     If (feature 16 <= 51.119999)
      If (feature 122 <= 91.889996)
       If (feature 130 <= 74.699997)
        Predict: 70.7777588741259
       Else (feature 130 > 74.699997)
        If (feature 120 <= 91.7999955)
         Predict: 71.6059509110889
        Else (feature 120 > 91.7999955)
         Predict: 72.25594100349653
      Else (feature 122 > 91.889996)
       Predict: 68.22209496503501
     Else (feature 16 > 51.119999)
      Predict: 55.52307444055941
  Tree 10:
    If (feature 126 <= 81.0899965)
     If (feature 63 <= 33.839998)
      Predict: 67.2293675734266
     Else (feature 63 > 33.839998)
      If (feature 139 <= 39.4199985)
       If (feature 0 <= 35.6399995)
        If (feature 111 <= 50.759996)
         Predict: 38.55020815734265
        Else (feature 111 > 50.759996)
         Predict: 37.66216626923075
       Else (feature 0 > 35.6399995)
        Predict: 40.618320055944025
      Else (feature 139 > 39.4199985)
       If (feature 119 <= 80.279995)
        Predict: 45.1434945804196
       Else (feature 119 > 80.279995)
        Predict: 55.52307444055941
    Else (feature 126 > 81.0899965)
     If (feature 52 <= 82.349995)
      If (feature 99 <= 89.1899985)
       Predict: 70.7777588741259
      Else (feature 99 > 89.1899985)
       If (feature 63 <= 69.479996)
        If (feature 75 <= 55.7999975)
         Predict: 71.5053115734265
        Else (feature 75 > 55.7999975)
         Predict: 71.64307383682986
       Else (feature 63 > 69.479996)
        Predict: 72.25761926573432
     Else (feature 52 > 82.349995)
      If (feature 122 <= 90.9899945)
       Predict: 66.8542630909091
      Else (feature 122 > 90.9899945)
       Predict: 68.22209496503501
  Tree 11:
    If (feature 129 <= 52.019996500000005)
     If (feature 12 <= 28.889999500000002)
      If (feature 116 <= 54.8099975)
       If (feature 99 <= 45.9)
        Predict: 37.8289495104895
       Else (feature 99 > 45.9)
        Predict: 37.9183200909091
      Else (feature 116 > 54.8099975)
       If (feature 0 <= 33.5699995)
        Predict: 37.1794390559441
       Else (feature 0 > 33.5699995)
        Predict: 37.4060124475524
     Else (feature 12 > 28.889999500000002)
      If (feature 89 <= 45.8999975)
       If (feature 0 <= 32.039998)
        Predict: 39.7724456153846
       Else (feature 0 > 32.039998)
        Predict: 39.3079702097902
      Else (feature 89 > 45.8999975)
       Predict: 40.618320055944
    Else (feature 129 > 52.019996500000005)
     If (feature 82 <= 74.789997)
      If (feature 91 <= 80.999996)
       If (feature 0 <= 54.449996999999996)
        If (feature 81 <= 32.8499975)
         Predict: 67.2293675734266
        Else (feature 81 > 32.8499975)
         Predict: 66.8542630909091
       Else (feature 0 > 54.449996999999996)
        Predict: 67.92293390909091
      Else (feature 91 > 80.999996)
       If (feature 106 <= 94.229996)
        Predict: 70.7777588741259
       Else (feature 106 > 94.229996)
        If (feature 0 <= 52.739998)
         Predict: 71.60237443123543
        Else (feature 0 > 52.739998)
         Predict: 72.25761926573432
     Else (feature 82 > 74.789997)
      Predict: 55.52307444055941
  Tree 12:
    If (feature 119 <= 57.5999985)
     If (feature 48 <= 43.5599995)
      If (feature 37 <= 31.3199985)
       If (feature 104 <= 49.229997499999996)
        Predict: 38.3362222727273
       Else (feature 104 > 49.229997499999996)
        If (feature 85 <= 41.579998)
         Predict: 37.9518865151515
        Else (feature 85 > 41.579998)
         Predict: 37.82894951048951
      Else (feature 37 > 31.3199985)
       If (feature 68 <= 38.969999)
        Predict: 37.1794390559441
       Else (feature 68 > 38.969999)
        Predict: 37.4060124475524
     Else (feature 48 > 43.5599995)
      If (feature 48 <= 46.709998999999996)
       Predict: 39.7724456153846
      Else (feature 48 > 46.709998999999996)
       Predict: 40.618320055944
    Else (feature 119 > 57.5999985)
     If (feature 110 <= 92.699997)
      If (feature 94 <= 82.529995)
       If (feature 0 <= 44.0999985)
        Predict: 67.2293675734266
       Else (feature 0 > 44.0999985)
        Predict: 66.85426309090911
      Else (feature 94 > 82.529995)
       If (feature 0 <= 36.629999)
        Predict: 68.222094965035
       Else (feature 0 > 36.629999)
        Predict: 67.9229339090909
     Else (feature 110 > 92.699997)
      If (feature 108 <= 95.30999349999999)
       Predict: 70.7777588741259
      Else (feature 108 > 95.30999349999999)
       If (feature 70 <= 66.509998)
        Predict: 72.2542627412587
       Else (feature 70 > 66.509998)
        If (feature 93 <= 85.049999)
         Predict: 71.6391578251748
        Else (feature 93 > 85.049999)
         Predict: 71.5053115734265
  Tree 13:
    If (feature 128 <= 52.829998)
     If (feature 125 <= 50.579998)
      If (feature 108 <= 54.269996500000005)
       If (feature 0 <= 34.739998)
        If (feature 99 <= 41.66999800000001)
         Predict: 38.3362222727273
        Else (feature 99 > 41.66999800000001)
         Predict: 37.9434949090909
       Else (feature 0 > 34.739998)
        Predict: 38.76419404195801
      Else (feature 108 > 54.269996500000005)
       If (feature 112 <= 55.4399985)
        Predict: 37.4060124475524
       Else (feature 112 > 55.4399985)
        Predict: 37.1794390559441
     Else (feature 125 > 50.579998)
      If (feature 79 <= 33.929998499999996)
       If (feature 137 <= 39.6899985)
        Predict: 39.7724456153846
       Else (feature 137 > 39.6899985)
        Predict: 39.307970209790206
      Else (feature 79 > 33.929998499999996)
       Predict: 40.618320055944025
    Else (feature 128 > 52.829998)
     If (feature 0 <= 56.159996)
      If (feature 71 <= 67.319996)
       If (feature 83 <= 36.809997499999994)
        Predict: 67.2293675734266
       Else (feature 83 > 36.809997499999994)
        Predict: 68.22209496503501
      Else (feature 71 > 67.319996)
       If (feature 117 <= 92.159996)
        Predict: 70.7777588741259
       Else (feature 117 > 92.159996)
        If (feature 0 <= 32.8499985)
         Predict: 71.6509058601399
        Else (feature 0 > 32.8499985)
         Predict: 72.25761926573429
     Else (feature 0 > 56.159996)
      Predict: 55.52307444055938
  Tree 14:
    If (feature 83 <= 59.399998)
     If (feature 4 <= 33.8399985)
      If (feature 105 <= 49.8599965)
       If (feature 88 <= 36.6299975)
        Predict: 38.764194041958
       Else (feature 88 > 36.6299975)
        Predict: 38.3362222727273
      Else (feature 105 > 49.8599965)
       If (feature 102 <= 51.209998999999996)
        If (feature 0 <= 32.039998)
         Predict: 37.9686697272727
        Else (feature 0 > 32.039998)
         Predict: 37.918320090909106
       Else (feature 102 > 51.209998999999996)
        If (feature 0 <= 33.5699995)
         Predict: 37.1794390559441
        Else (feature 0 > 33.5699995)
         Predict: 37.4060124475524
     Else (feature 4 > 33.8399985)
      Predict: 40.618320055944025
    Else (feature 83 > 59.399998)
     If (feature 17 <= 51.7499985)
      If (feature 110 <= 92.699997)
       If (feature 0 <= 36.629999)
        Predict: 68.222094965035
       Else (feature 0 > 36.629999)
        Predict: 66.8542630909091
      Else (feature 110 > 92.699997)
       If (feature 75 <= 55.259998499999995)
        Predict: 72.2542627412587
       Else (feature 75 > 55.259998499999995)
        If (feature 99 <= 89.1899985)
         Predict: 70.7777588741259
        Else (feature 99 > 89.1899985)
         Predict: 71.59650041375289
     Else (feature 17 > 51.7499985)
      Predict: 55.52307444055941
  Tree 15:
    If (feature 48 <= 63.539997)
     If (feature 63 <= 36.629997)
      If (feature 85 <= 38.609999)
       Predict: 39.7724456153846
      Else (feature 85 > 38.609999)
       Predict: 39.3079702097902
     Else (feature 63 > 36.629997)
      If (feature 0 <= 32.039998)
       Predict: 37.9686697272727
      Else (feature 0 > 32.039998)
       Predict: 37.4060124475524
    Else (feature 48 > 63.539997)
     If (feature 58 <= 81.80999750000001)
      If (feature 55 <= 78.569996)
       If (feature 55 <= 75.32999799999999)
        If (feature 62 <= 69.569996)
         Predict: 72.2559410034965
        Else (feature 62 > 69.569996)
         Predict: 71.60237443123545
       Else (feature 55 > 75.32999799999999)
        Predict: 70.77775887412588
      Else (feature 55 > 78.569996)
       If (feature 56 <= 76.4099995)
        Predict: 66.8542630909091
       Else (feature 56 > 76.4099995)
        If (feature 74 <= 59.579998)
         Predict: 67.9229339090909
        Else (feature 74 > 59.579998)
         Predict: 68.222094965035
     Else (feature 58 > 81.80999750000001)
      Predict: 55.52307444055941
  Tree 16:
    If (feature 128 <= 52.829998)
     If (feature 51 <= 40.499998000000005)
      If (feature 112 <= 51.0299965)
       If (feature 1 <= 32.8499985)
        Predict: 38.3362222727273
       Else (feature 1 > 32.8499985)
        Predict: 38.764194041958
      Else (feature 112 > 51.0299965)
       If (feature 69 <= 39.779999000000004)
        If (feature 133 <= 42.659998)
         Predict: 37.1794390559441
        Else (feature 133 > 42.659998)
         Predict: 37.4060124475524
       Else (feature 69 > 39.779999000000004)
        Predict: 37.82894951048951
     Else (feature 51 > 40.499998000000005)
      If (feature 143 <= 35.5499995)
       Predict: 40.618320055944
      Else (feature 143 > 35.5499995)
       If (feature 0 <= 32.039998)
        Predict: 39.7724456153846
       Else (feature 0 > 32.039998)
        Predict: 39.3079702097902
    Else (feature 128 > 52.829998)
     If (feature 17 <= 51.7499985)
      If (feature 111 <= 93.05999750000001)
       If (feature 126 <= 54.3599965)
        Predict: 67.2293675734266
       Else (feature 126 > 54.3599965)
        Predict: 66.8542630909091
      Else (feature 111 > 93.05999750000001)
       If (feature 143 <= 53.2799965)
        Predict: 70.7777588741259
       Else (feature 143 > 53.2799965)
        If (feature 117 <= 94.76999699999999)
         Predict: 72.2576192657343
        Else (feature 117 > 94.76999699999999)
         Predict: 71.63915782517479
     Else (feature 17 > 51.7499985)
      If (feature 4 <= 52.3799975)
       Predict: 55.5230744405594
      Else (feature 4 > 52.3799975)
       Predict: 45.1434945804196
  Tree 17:
    If (feature 129 <= 52.019996500000005)
     If (feature 133 <= 43.739998)
      If (feature 103 <= 48.5999985)
       If (feature 64 <= 42.119999)
        Predict: 38.3362222727273
       Else (feature 64 > 42.119999)
        Predict: 38.764194041958
      Else (feature 103 > 48.5999985)
       If (feature 83 <= 37.439999)
        Predict: 37.1794390559441
       Else (feature 83 > 37.439999)
        If (feature 62 <= 44.8199975)
         Predict: 37.9183200909091
        Else (feature 62 > 44.8199975)
         Predict: 37.828949510489494
     Else (feature 133 > 43.739998)
      If (feature 84 <= 41.9399985)
       If (feature 75 <= 29.789999)
        Predict: 39.3079702097902
       Else (feature 75 > 29.789999)
        Predict: 39.772445615384584
      Else (feature 84 > 41.9399985)
       Predict: 40.618320055944
    Else (feature 129 > 52.019996500000005)
     If (feature 53 <= 83.4299965)
      If (feature 113 <= 91.529995)
       If (feature 110 <= 91.2599945)
        If (feature 138 <= 41.7599985)
         Predict: 67.2293675734266
        Else (feature 138 > 41.7599985)
         Predict: 66.85426309090911
       Else (feature 110 > 91.2599945)
        If (feature 89 <= 80.6399955)
         Predict: 67.9229339090909
        Else (feature 89 > 80.6399955)
         Predict: 68.22209496503501
      Else (feature 113 > 91.529995)
       If (feature 132 <= 67.3199955)
        Predict: 70.7777588741259
       Else (feature 132 > 67.3199955)
        If (feature 139 <= 61.6499975)
         Predict: 71.57810871678319
        Else (feature 139 > 61.6499975)
         Predict: 72.25761926573432
     Else (feature 53 > 83.4299965)
      Predict: 55.52307444055941
  Tree 18:
    If (feature 123 <= 59.219997500000005)
     If (feature 49 <= 44.0999985)
      If (feature 107 <= 53.8199975)
       If (feature 126 <= 48.5999985)
        Predict: 38.3362222727273
       Else (feature 126 > 48.5999985)
        If (feature 91 <= 38.879999)
         Predict: 37.9686697272727
        Else (feature 91 > 38.879999)
         Predict: 37.9183200909091
      Else (feature 107 > 53.8199975)
       If (feature 8 <= 29.8799985)
        Predict: 37.4060124475524
       Else (feature 8 > 29.8799985)
        Predict: 37.1794390559441
     Else (feature 49 > 44.0999985)
      If (feature 55 <= 43.3799995)
       Predict: 39.3079702097902
      Else (feature 55 > 43.3799995)
       Predict: 39.772445615384584
    Else (feature 123 > 59.219997500000005)
     If (feature 1 <= 54.179998)
      If (feature 131 <= 70.649998)
       If (feature 88 <= 42.659998)
        Predict: 67.2293675734266
       Else (feature 88 > 42.659998)
        Predict: 68.22209496503501
      Else (feature 131 > 70.649998)
       If (feature 77 <= 57.41999800000001)
        If (feature 128 <= 82.70999549999999)
         Predict: 71.5053115734265
        Else (feature 128 > 82.70999549999999)
         Predict: 71.64698984848489
       Else (feature 77 > 57.41999800000001)
        Predict: 72.25426274125874
     Else (feature 1 > 54.179998)
      Predict: 55.52307444055941
  Tree 19:
    If (feature 129 <= 52.019996500000005)
     If (feature 117 <= 55.8899975)
      If (feature 141 <= 35.8199995)
       If (feature 1 <= 32.8499985)
        Predict: 38.3362222727273
       Else (feature 1 > 32.8499985)
        Predict: 38.764194041958
      Else (feature 141 > 35.8199995)
       If (feature 104 <= 50.219997500000005)
        Predict: 37.8289495104895
       Else (feature 104 > 50.219997500000005)
        Predict: 37.9686697272727
     Else (feature 117 > 55.8899975)
      If (feature 73 <= 29.3399985)
       Predict: 39.3079702097902
      Else (feature 73 > 29.3399985)
       Predict: 40.618320055944
    Else (feature 129 > 52.019996500000005)
     If (feature 1 <= 55.619997)
      If (feature 4 <= 51.3899995)
       If (feature 84 <= 39.42)
        Predict: 67.2293675734266
       Else (feature 84 > 39.42)
        Predict: 66.85426309090911
      Else (feature 4 > 51.3899995)
       If (feature 122 <= 87.20999499999999)
        Predict: 70.7777588741259
       Else (feature 122 > 87.20999499999999)
        If (feature 93 <= 81.989994)
         Predict: 72.2542627412587
        Else (feature 93 > 81.989994)
         Predict: 72.25761926573432
     Else (feature 1 > 55.619997)
      If (feature 8 <= 52.199996999999996)
       Predict: 55.5230744405594
      Else (feature 8 > 52.199996999999996)
       Predict: 45.1434945804196
  Tree 20:
    If (feature 13 <= 29.5199985)
     If (feature 83 <= 36.3599985)
      If (feature 0 <= 32.039998)
       Predict: 39.7724456153846
      Else (feature 0 > 32.039998)
       Predict: 38.76419404195799
     Else (feature 83 > 36.3599985)
      If (feature 122 <= 51.479997499999996)
       Predict: 37.9183200909091
      Else (feature 122 > 51.479997499999996)
       If (feature 0 <= 33.5699995)
        Predict: 37.1794390559441
       Else (feature 0 > 33.5699995)
        Predict: 37.4060124475524
    Else (feature 13 > 29.5199985)
     If (feature 36 <= 63.3599965)
      If (feature 72 <= 59.939997000000005)
       If (feature 0 <= 44.0999985)
        Predict: 67.2293675734266
       Else (feature 0 > 44.0999985)
        Predict: 67.9229339090909
      Else (feature 72 > 59.939997000000005)
       If (feature 134 <= 63.6299975)
        Predict: 70.7777588741259
       Else (feature 134 > 63.6299975)
        If (feature 76 <= 56.8799975)
         Predict: 71.60237443123543
        Else (feature 76 > 56.8799975)
         Predict: 72.25761926573432
     Else (feature 36 > 63.3599965)
      Predict: 45.14349458041954
  Tree 21:
    If (feature 141 <= 36.899998)
     If (feature 126 <= 52.379999)
      If (feature 135 <= 40.5899985)
       If (feature 87 <= 40.679998499999996)
        Predict: 37.9183200909091
       Else (feature 87 > 40.679998499999996)
        Predict: 37.82894951048951
      Else (feature 135 > 40.5899985)
       If (feature 0 <= 34.0199985)
        Predict: 38.3362222727273
       Else (feature 0 > 34.0199985)
        Predict: 38.76419404195801
     Else (feature 126 > 52.379999)
      Predict: 40.618320055944025
    Else (feature 141 > 36.899998)
     If (feature 2 <= 54.1799965)
      If (feature 91 <= 79.82999799999999)
       If (feature 133 <= 47.1599975)
        Predict: 67.2293675734266
       Else (feature 133 > 47.1599975)
        Predict: 66.8542630909091
      Else (feature 91 > 79.82999799999999)
       If (feature 71 <= 65.879997)
        Predict: 72.2542627412587
       Else (feature 71 > 65.879997)
        If (feature 135 <= 64.349995)
         Predict: 70.7777588741259
        Else (feature 135 > 64.349995)
         Predict: 71.57517170804194
     Else (feature 2 > 54.1799965)
      Predict: 55.52307444055941
  Tree 22:
    If (feature 126 <= 77.66999799999999)
     If (feature 110 <= 59.7599965)
      If (feature 123 <= 51.3899975)
       If (feature 82 <= 34.649998)
        Predict: 38.764194041958
       Else (feature 82 > 34.649998)
        If (feature 84 <= 37.8899995)
         Predict: 37.29272575174825
        Else (feature 84 > 37.8899995)
         Predict: 37.87363480069931
      Else (feature 123 > 51.3899975)
       If (feature 54 <= 44.909998)
        Predict: 39.7724456153846
       Else (feature 54 > 44.909998)
        Predict: 40.618320055944
     Else (feature 110 > 59.7599965)
      Predict: 45.14349458041962
    Else (feature 126 > 77.66999799999999)
     If (feature 110 <= 92.699997)
      If (feature 136 <= 62.459997)
       Predict: 67.9229339090909
      Else (feature 136 > 62.459997)
       Predict: 68.22209496503498
     Else (feature 110 > 92.699997)
      If (feature 81 <= 72.1800005)
       If (feature 75 <= 55.7999975)
        Predict: 71.5053115734265
       Else (feature 75 > 55.7999975)
        If (feature 94 <= 85.1399995)
         Predict: 71.6391578251748
        Else (feature 94 > 85.1399995)
         Predict: 71.65090586013991
      Else (feature 81 > 72.1800005)
       If (feature 115 <= 95.39999399999999)
        Predict: 72.2576192657343
       Else (feature 115 > 95.39999399999999)
        Predict: 72.2542627412587
  Tree 23:
    If (feature 138 <= 39.959998999999996)
     If (feature 37 <= 31.3199985)
      If (feature 138 <= 38.25)
       If (feature 0 <= 32.039998)
        Predict: 37.9686697272727
       Else (feature 0 > 32.039998)
        Predict: 37.918320090909106
      Else (feature 138 > 38.25)
       If (feature 97 <= 39.329998)
        Predict: 38.3362222727273
       Else (feature 97 > 39.329998)
        Predict: 38.76419404195801
     Else (feature 37 > 31.3199985)
      If (feature 60 <= 35.009997999999996)
       Predict: 37.1794390559441
      Else (feature 60 > 35.009997999999996)
       Predict: 37.4060124475524
    Else (feature 138 > 39.959998999999996)
     If (feature 27 <= 49.3199975)
      If (feature 96 <= 85.49999600000001)
       If (feature 55 <= 38.429998499999996)
        Predict: 67.2293675734266
       Else (feature 55 > 38.429998499999996)
        Predict: 66.8542630909091
      Else (feature 96 > 85.49999600000001)
       If (feature 108 <= 94.589996)
        Predict: 67.9229339090909
       Else (feature 108 > 94.589996)
        Predict: 68.22209496503498
     Else (feature 27 > 49.3199975)
      If (feature 68 <= 67.499996)
       Predict: 72.2542627412587
      Else (feature 68 > 67.499996)
       If (feature 0 <= 52.739998)
        Predict: 71.5053115734265
       Else (feature 0 > 52.739998)
        Predict: 71.6391578251748
  Tree 24:
    If (feature 20 <= 29.249999)
     If (feature 90 <= 36.449999)
      Predict: 39.7724456153846
     Else (feature 90 > 36.449999)
      If (feature 93 <= 37.619999)
       Predict: 37.1794390559441
      Else (feature 93 > 37.619999)
       If (feature 98 <= 39.0599975)
        Predict: 38.3362222727273
       Else (feature 98 > 39.0599975)
        If (feature 70 <= 41.489999999999995)
         Predict: 37.9434949090909
        Else (feature 70 > 41.489999999999995)
         Predict: 37.82894951048951
    Else (feature 20 > 29.249999)
     If (feature 127 <= 65.6099985)
      If (feature 85 <= 39.6899985)
       Predict: 67.2293675734266
      Else (feature 85 > 39.6899985)
       Predict: 39.3079702097902
     Else (feature 127 > 65.6099985)
      If (feature 38 <= 71.8199995)
       If (feature 121 <= 88.0199965)
        Predict: 70.7777588741259
       Else (feature 121 > 88.0199965)
        If (feature 132 <= 70.7399975)
         Predict: 71.6059509110889
        Else (feature 132 > 70.7399975)
         Predict: 72.25650042424246
      Else (feature 38 > 71.8199995)
       If (feature 2 <= 52.829998)
        Predict: 67.9229339090909
       Else (feature 2 > 52.829998)
        Predict: 66.8542630909091
  Tree 25:
    If (feature 125 <= 83.159996)
     If (feature 76 <= 26.459999)
      Predict: 67.2293675734266
     Else (feature 76 > 26.459999)
      If (feature 4 <= 50.8499985)
       If (feature 0 <= 35.6399995)
        If (feature 112 <= 51.0299965)
         Predict: 38.55020815734265
        Else (feature 112 > 51.0299965)
         Predict: 37.68880962470863
       Else (feature 0 > 35.6399995)
        If (feature 111 <= 58.3199975)
         Predict: 40.618320055944
        Else (feature 111 > 58.3199975)
         Predict: 39.3079702097902
      Else (feature 4 > 50.8499985)
       If (feature 0 <= 55.7999975)
        Predict: 45.1434945804196
       Else (feature 0 > 55.7999975)
        Predict: 55.52307444055941
    Else (feature 125 > 83.159996)
     If (feature 111 <= 93.5099985)
      If (feature 2 <= 52.829998)
       If (feature 57 <= 78.2999955)
        Predict: 67.9229339090909
       Else (feature 57 > 78.2999955)
        Predict: 68.22209496503501
      Else (feature 2 > 52.829998)
       Predict: 66.85426309090911
     Else (feature 111 > 93.5099985)
      If (feature 139 <= 61.109997)
       Predict: 70.7777588741259
      Else (feature 139 > 61.109997)
       If (feature 0 <= 53.63999750000001)
        If (feature 60 <= 69.83999650000001)
         Predict: 71.6509058601399
        Else (feature 60 > 69.83999650000001)
         Predict: 71.63915782517479
       Else (feature 0 > 53.63999750000001)
        If (feature 60 <= 70.2899975)
         Predict: 72.2576192657343
        Else (feature 60 > 70.2899975)
         Predict: 72.2542627412587
  Tree 26:
    If (feature 123 <= 59.219997500000005)
     If (feature 112 <= 55.979997499999996)
      If (feature 72 <= 41.9399985)
       If (feature 49 <= 36.449999)
        Predict: 37.1794390559441
       Else (feature 49 > 36.449999)
        Predict: 37.4060124475524
      Else (feature 72 > 41.9399985)
       If (feature 0 <= 34.0199985)
        Predict: 38.3362222727273
       Else (feature 0 > 34.0199985)
        Predict: 38.76419404195801
     Else (feature 112 > 55.979997499999996)
      If (feature 143 <= 35.5499995)
       Predict: 40.618320055944
      Else (feature 143 > 35.5499995)
       Predict: 39.3079702097902
    Else (feature 123 > 59.219997500000005)
     If (feature 30 <= 53.459997)
      If (feature 113 <= 91.529995)
       If (feature 137 <= 61.4699975)
        If (feature 0 <= 44.0999985)
         Predict: 67.2293675734266
        Else (feature 0 > 44.0999985)
         Predict: 66.85426309090911
       Else (feature 137 > 61.4699975)
        Predict: 67.92293390909089
      Else (feature 113 > 91.529995)
       If (feature 66 <= 69.659996)
        If (feature 0 <= 55.3499985)
         Predict: 72.2542627412587
        Else (feature 0 > 55.3499985)
         Predict: 72.2576192657343
       Else (feature 66 > 69.659996)
        If (feature 1 <= 53.1899985)
         Predict: 70.7777588741259
        Else (feature 1 > 53.1899985)
         Predict: 71.57223469930065
     Else (feature 30 > 53.459997)
      Predict: 55.52307444055941
  Tree 27:
    If (feature 122 <= 59.4899975)
     If (feature 5 <= 32.3999985)
      If (feature 134 <= 42.659998)
       If (feature 64 <= 44.909998)
        If (feature 0 <= 32.039998)
         Predict: 37.9686697272727
        Else (feature 0 > 32.039998)
         Predict: 37.918320090909106
       Else (feature 64 > 44.909998)
        Predict: 37.82894951048951
      Else (feature 134 > 42.659998)
       Predict: 37.4060124475524
     Else (feature 5 > 32.3999985)
      If (feature 77 <= 29.249998)
       Predict: 39.3079702097902
      Else (feature 77 > 29.249998)
       Predict: 38.76419404195801
    Else (feature 122 > 59.4899975)
     If (feature 58 <= 77.84999450000001)
      If (feature 0 <= 44.0999985)
       Predict: 67.2293675734266
      Else (feature 0 > 44.0999985)
       If (feature 108 <= 95.6699945)
        Predict: 71.5053115734265
       Else (feature 108 > 95.6699945)
        Predict: 71.6391578251748
     Else (feature 58 > 77.84999450000001)
      Predict: 55.52307444055941
  Tree 28:
    If (feature 114 <= 84.77999500000001)
     If (feature 129 <= 52.019996500000005)
      If (feature 49 <= 44.0999985)
       If (feature 4 <= 31.589998)
        If (feature 64 <= 37.3499985)
         Predict: 37.1794390559441
        Else (feature 64 > 37.3499985)
         Predict: 37.87363480069931
       Else (feature 4 > 31.589998)
        Predict: 38.76419404195801
      Else (feature 49 > 44.0999985)
       If (feature 1 <= 50.66999800000001)
        If (feature 140 <= 38.069998)
         Predict: 39.7724456153846
        Else (feature 140 > 38.069998)
         Predict: 39.3079702097902
       Else (feature 1 > 50.66999800000001)
        Predict: 40.61832005594399
     Else (feature 129 > 52.019996500000005)
      Predict: 45.1434945804196
    Else (feature 114 > 84.77999500000001)
     If (feature 61 <= 79.1099965)
      If (feature 53 <= 78.5699955)
       If (feature 121 <= 88.0199965)
        Predict: 70.7777588741259
       Else (feature 121 > 88.0199965)
        If (feature 133 <= 68.6699945)
         Predict: 72.2542627412587
        Else (feature 133 > 68.6699945)
         Predict: 71.64503184265737
      Else (feature 53 > 78.5699955)
       If (feature 83 <= 74.6099965)
        If (feature 90 <= 80.1899985)
         Predict: 67.9229339090909
        Else (feature 90 > 80.1899985)
         Predict: 68.22209496503498
       Else (feature 83 > 74.6099965)
        Predict: 66.85426309090911
     Else (feature 61 > 79.1099965)
      Predict: 55.52307444055941
  Tree 29:
    If (feature 26 <= 28.4399985)
     If (feature 96 <= 37.16999800000001)
      If (feature 0 <= 32.039998)
       Predict: 39.7724456153846
      Else (feature 0 > 32.039998)
       Predict: 38.76419404195801
     Else (feature 96 > 37.16999800000001)
      If (feature 110 <= 51.659998)
       If (feature 133 <= 42.659998)
        Predict: 37.8289495104895
       Else (feature 133 > 42.659998)
        Predict: 38.336222272727305
      Else (feature 110 > 51.659998)
       If (feature 11 <= 28.4399985)
        Predict: 37.4060124475524
       Else (feature 11 > 28.4399985)
        Predict: 37.1794390559441
    Else (feature 26 > 28.4399985)
     If (feature 70 <= 64.169996)
      If (feature 112 <= 56.789997)
       Predict: 67.2293675734266
      Else (feature 112 > 56.789997)
       Predict: 67.92293390909089
     Else (feature 70 > 64.169996)
      If (feature 0 <= 54.0899965)
       If (feature 85 <= 80.369999)
        Predict: 70.7777588741259
       Else (feature 85 > 80.369999)
        Predict: 71.6509058601399
      Else (feature 0 > 54.0899965)
       If (feature 61 <= 67.41)
        Predict: 72.2542627412587
       Else (feature 61 > 67.41)
        Predict: 72.25761926573429
  Tree 30:
    If (feature 106 <= 85.1399955)
     If (feature 71 <= 29.699999)
      Predict: 67.2293675734266
     Else (feature 71 > 29.699999)
      If (feature 88 <= 41.489998)
       If (feature 56 <= 37.4399985)
        Predict: 37.1794390559441
       Else (feature 56 > 37.4399985)
        If (feature 109 <= 50.7599965)
         Predict: 37.8289495104895
        Else (feature 109 > 50.7599965)
         Predict: 37.9351033030303
      Else (feature 88 > 41.489998)
       Predict: 45.143494580419606
    Else (feature 106 > 85.1399955)
     If (feature 51 <= 85.9499935)
      If (feature 121 <= 88.0199965)
       Predict: 70.7777588741259
      Else (feature 121 > 88.0199965)
       If (feature 73 <= 61.109999)
        If (feature 100 <= 91.61999499999999)
         Predict: 71.5053115734265
        Else (feature 100 > 91.61999499999999)
         Predict: 71.64503184265736
       Else (feature 73 > 61.109999)
        Predict: 72.25761926573432
     Else (feature 51 > 85.9499935)
      If (feature 2 <= 52.829998)
       Predict: 67.9229339090909
      Else (feature 2 > 52.829998)
       Predict: 66.85426309090911
  Tree 31:
    If (feature 128 <= 52.829998)
     If (feature 7 <= 32.2199975)
      If (feature 2 <= 33.3899995)
       If (feature 142 <= 34.199999000000005)
        Predict: 37.1794390559441
       Else (feature 142 > 34.199999000000005)
        If (feature 61 <= 43.739998)
         Predict: 37.9434949090909
        Else (feature 61 > 43.739998)
         Predict: 37.82894951048951
      Else (feature 2 > 33.3899995)
       Predict: 38.76419404195801
     Else (feature 7 > 32.2199975)
      If (feature 102 <= 57.5099965)
       Predict: 39.3079702097902
      Else (feature 102 > 57.5099965)
       Predict: 40.618320055944
    Else (feature 128 > 52.829998)
     If (feature 83 <= 76.5899965)
      If (feature 139 <= 61.289997)
       If (feature 102 <= 93.95999900000001)
        If (feature 73 <= 26.999999)
         Predict: 67.2293675734266
        Else (feature 73 > 26.999999)
         Predict: 66.8542630909091
       Else (feature 102 > 93.95999900000001)
        If (feature 0 <= 36.629999)
         Predict: 68.222094965035
        Else (feature 0 > 36.629999)
         Predict: 67.9229339090909
      Else (feature 139 > 61.289997)
       If (feature 122 <= 89.909996)
        If (feature 0 <= 32.8499985)
         Predict: 71.6509058601399
        Else (feature 0 > 32.8499985)
         Predict: 71.63915782517479
       Else (feature 122 > 89.909996)
        Predict: 72.25761926573432
     Else (feature 83 > 76.5899965)
      Predict: 55.52307444055941
  Tree 32:
    If (feature 88 <= 78.74999600000001)
     If (feature 139 <= 39.4199985)
      If (feature 135 <= 41.3999975)
       If (feature 64 <= 39.869999)
        If (feature 15 <= 28.259998500000002)
         Predict: 37.4060124475524
        Else (feature 15 > 28.259998500000002)
         Predict: 37.1794390559441
       Else (feature 64 > 39.869999)
        If (feature 5 <= 31.2299985)
         Predict: 37.9183200909091
        Else (feature 5 > 31.2299985)
         Predict: 38.76419404195799
      Else (feature 135 > 41.3999975)
       Predict: 40.61832005594397
     Else (feature 139 > 39.4199985)
      Predict: 45.1434945804196
    Else (feature 88 > 78.74999600000001)
     If (feature 113 <= 91.529995)
      If (feature 95 <= 82.34999450000001)
       Predict: 66.8542630909091
      Else (feature 95 > 82.34999450000001)
       If (feature 74 <= 59.579998)
        Predict: 67.9229339090909
       Else (feature 74 > 59.579998)
        Predict: 68.222094965035
     Else (feature 113 > 91.529995)
      If (feature 122 <= 89.909996)
       If (feature 94 <= 83.8799975)
        Predict: 70.7777588741259
       Else (feature 94 > 83.8799975)
        If (feature 85 <= 79.289997)
         Predict: 71.5053115734265
        Else (feature 85 > 79.289997)
         Predict: 71.64503184265735
      Else (feature 122 > 89.909996)
       If (feature 62 <= 68.489994)
        Predict: 72.2542627412587
       Else (feature 62 > 68.489994)
        Predict: 72.25761926573432
  Tree 33:
    If (feature 48 <= 80.729996)
     If (feature 77 <= 45.179998499999996)
      If (feature 92 <= 35.999998)
       Predict: 37.1794390559441
      Else (feature 92 > 35.999998)
       If (feature 95 <= 37.169998)
        Predict: 38.3362222727273
       Else (feature 95 > 37.169998)
        If (feature 81 <= 40.7699985)
         Predict: 37.9518865151515
        Else (feature 81 > 40.7699985)
         Predict: 37.82894951048951
     Else (feature 77 > 45.179998499999996)
      Predict: 40.618320055944004
    Else (feature 48 > 80.729996)
     If (feature 95 <= 81.1799965)
      Predict: 55.52307444055939
     Else (feature 95 > 81.1799965)
      If (feature 113 <= 91.529995)
       Predict: 67.9229339090909
      Else (feature 113 > 91.529995)
       If (feature 79 <= 63.989996000000005)
        If (feature 131 <= 73.8899955)
         Predict: 71.5053115734265
        Else (feature 131 > 73.8899955)
         Predict: 71.64503184265735
       Else (feature 79 > 63.989996000000005)
        If (feature 52 <= 30.869998000000002)
         Predict: 72.2542627412587
        Else (feature 52 > 30.869998000000002)
         Predict: 72.2576192657343
  Tree 34:
    If (feature 128 <= 52.829998)
     If (feature 1 <= 35.009998499999995)
      If (feature 107 <= 53.8199975)
       If (feature 84 <= 34.9199985)
        Predict: 37.9686697272727
       Else (feature 84 > 34.9199985)
        Predict: 37.82894951048951
      Else (feature 107 > 53.8199975)
       If (feature 105 <= 52.019996500000005)
        Predict: 37.1794390559441
       Else (feature 105 > 52.019996500000005)
        Predict: 37.4060124475524
     Else (feature 1 > 35.009998499999995)
      If (feature 137 <= 39.0599975)
       Predict: 38.764194041958
      Else (feature 137 > 39.0599975)
       Predict: 39.3079702097902
    Else (feature 128 > 52.829998)
     If (feature 1 <= 55.619997)
      If (feature 68 <= 66.239998)
       If (feature 0 <= 54.449996999999996)
        If (feature 83 <= 36.809997499999994)
         Predict: 67.2293675734266
        Else (feature 83 > 36.809997499999994)
         Predict: 66.85426309090911
       Else (feature 0 > 54.449996999999996)
        Predict: 67.92293390909089
      Else (feature 68 > 66.239998)
       If (feature 123 <= 85.49999600000001)
        Predict: 70.7777588741259
       Else (feature 123 > 85.49999600000001)
        If (feature 93 <= 83.2499965)
         Predict: 72.2576192657343
        Else (feature 93 > 83.2499965)
         Predict: 71.61708778881118
     Else (feature 1 > 55.619997)
      If (feature 4 <= 52.3799975)
       Predict: 55.5230744405594
      Else (feature 4 > 52.3799975)
       Predict: 45.1434945804196
  Tree 35:
    If (feature 106 <= 59.489996000000005)
     If (feature 1 <= 35.369999)
      If (feature 37 <= 31.3199985)
       If (feature 0 <= 34.739998)
        If (feature 55 <= 37.7999995)
         Predict: 37.8289495104895
        Else (feature 55 > 37.7999995)
         Predict: 37.9351033030303
       Else (feature 0 > 34.739998)
        Predict: 38.76419404195801
      Else (feature 37 > 31.3199985)
       Predict: 37.1794390559441
     Else (feature 1 > 35.369999)
      Predict: 40.618320055944025
    Else (feature 106 > 59.489996000000005)
     If (feature 17 <= 51.7499985)
      If (feature 68 <= 66.239998)
       If (feature 128 <= 79.55999750000001)
        Predict: 66.8542630909091
       Else (feature 128 > 79.55999750000001)
        Predict: 67.9229339090909
      Else (feature 68 > 66.239998)
       If (feature 120 <= 88.10999699999999)
        Predict: 70.7777588741259
       Else (feature 120 > 88.10999699999999)
        If (feature 56 <= 18.2699985)
         Predict: 72.2542627412587
        Else (feature 56 > 18.2699985)
         Predict: 71.59845841958042
     Else (feature 17 > 51.7499985)
      Predict: 55.52307444055941
  Tree 36:
    If (feature 123 <= 59.219997500000005)
     If (feature 1 <= 35.009998499999995)
      If (feature 108 <= 54.269996500000005)
       If (feature 132 <= 44.549999)
        Predict: 38.3362222727273
       Else (feature 132 > 44.549999)
        If (feature 50 <= 38.789997)
         Predict: 37.9686697272727
        Else (feature 50 > 38.789997)
         Predict: 37.918320090909106
      Else (feature 108 > 54.269996500000005)
       If (feature 123 <= 50.759998499999995)
        Predict: 37.4060124475524
       Else (feature 123 > 50.759998499999995)
        Predict: 37.1794390559441
     Else (feature 1 > 35.009998499999995)
      If (feature 62 <= 41.039997)
       If (feature 112 <= 47.789997)
        Predict: 38.764194041958
       Else (feature 112 > 47.789997)
        Predict: 39.307970209790206
      Else (feature 62 > 41.039997)
       Predict: 40.618320055944
    Else (feature 123 > 59.219997500000005)
     If (feature 7 <= 52.109997)
      If (feature 132 <= 69.2999955)
       If (feature 95 <= 82.34999450000001)
        If (feature 97 <= 42.8399985)
         Predict: 67.2293675734266
        Else (feature 97 > 42.8399985)
         Predict: 66.8542630909091
       Else (feature 95 > 82.34999450000001)
        If (feature 74 <= 59.579998)
         Predict: 67.9229339090909
        Else (feature 74 > 59.579998)
         Predict: 68.22209496503501
      Else (feature 132 > 69.2999955)
       If (feature 114 <= 91.61999499999999)
        If (feature 51 <= 83.699997)
         Predict: 71.6509058601399
        Else (feature 51 > 83.699997)
         Predict: 71.50531157342648
       Else (feature 114 > 91.61999499999999)
        Predict: 72.25761926573432
     Else (feature 7 > 52.109997)
      Predict: 45.143494580419656
  Tree 37:
    If (feature 123 <= 59.219997500000005)
     If (feature 103 <= 56.609997)
      If (feature 54 <= 37.8899995)
       Predict: 37.8289495104895
      Else (feature 54 > 37.8899995)
       Predict: 37.406012447552406
     Else (feature 103 > 56.609997)
      If (feature 0 <= 51.209999499999995)
       Predict: 40.618320055944
      Else (feature 0 > 51.209999499999995)
       Predict: 39.3079702097902
    Else (feature 123 > 59.219997500000005)
     If (feature 69 <= 71.0099945)
      If (feature 68 <= 68.2199975)
       If (feature 130 <= 75.869999)
        If (feature 54 <= 38.429998499999996)
         Predict: 67.2293675734266
        Else (feature 54 > 38.429998499999996)
         Predict: 66.85426309090911
       Else (feature 130 > 75.869999)
        If (feature 87 <= 83.159996)
         Predict: 67.9229339090909
        Else (feature 87 > 83.159996)
         Predict: 68.222094965035
      Else (feature 68 > 68.2199975)
       If (feature 0 <= 32.8499985)
        Predict: 71.6509058601399
       Else (feature 0 > 32.8499985)
        Predict: 72.25761926573432
     Else (feature 69 > 71.0099945)
      Predict: 55.52307444055941
  Tree 38:
    If (feature 127 <= 51.569998)
     If (feature 134 <= 40.5899985)
      Predict: 37.1794390559441
     Else (feature 134 > 40.5899985)
      If (feature 61 <= 43.739998)
       If (feature 131 <= 44.8199975)
        Predict: 37.9686697272727
       Else (feature 131 > 44.8199975)
        Predict: 37.918320090909106
      Else (feature 61 > 43.739998)
       Predict: 37.82894951048951
    Else (feature 127 > 51.569998)
     If (feature 64 <= 75.14999750000001)
      If (feature 110 <= 92.699997)
       If (feature 142 <= 55.4399985)
        If (feature 140 <= 40.13999750000001)
         Predict: 67.2293675734266
        Else (feature 140 > 40.13999750000001)
         Predict: 66.85426309090911
       Else (feature 142 > 55.4399985)
        If (feature 109 <= 92.519997)
         Predict: 67.9229339090909
        Else (feature 109 > 92.519997)
         Predict: 68.222094965035
      Else (feature 110 > 92.699997)
       If (feature 142 <= 55.8899975)
        If (feature 128 <= 82.70999549999999)
         Predict: 71.5053115734265
        Else (feature 128 > 82.70999549999999)
         Predict: 71.6509058601399
       Else (feature 142 > 55.8899975)
        If (feature 50 <= 86.39999399999999)
         Predict: 72.2576192657343
        Else (feature 50 > 86.39999399999999)
         Predict: 72.2542627412587
     Else (feature 64 > 75.14999750000001)
      Predict: 55.52307444055941
  Tree 39:
    If (feature 102 <= 91.16999849999999)
     If (feature 75 <= 26.639999500000002)
      Predict: 67.2293675734266
     Else (feature 75 > 26.639999500000002)
      If (feature 3 <= 49.319998)
       If (feature 0 <= 35.6399995)
        If (feature 99 <= 41.66999800000001)
         Predict: 38.59300533426572
        Else (feature 99 > 41.66999800000001)
         Predict: 37.858739703962705
       Else (feature 0 > 35.6399995)
        Predict: 40.61832005594397
      Else (feature 3 > 49.319998)
       If (feature 0 <= 55.7999975)
        Predict: 45.1434945804196
       Else (feature 0 > 55.7999975)
        Predict: 55.52307444055941
    Else (feature 102 > 91.16999849999999)
     If (feature 80 <= 68.7599945)
      If (feature 139 <= 61.109997)
       Predict: 70.7777588741259
      Else (feature 139 > 61.109997)
       If (feature 57 <= 73.079994)
        If (feature 131 <= 74.9699975)
         Predict: 72.2542627412587
        Else (feature 131 > 74.9699975)
         Predict: 72.25761926573432
       Else (feature 57 > 73.079994)
        Predict: 71.63915782517483
     Else (feature 80 > 68.7599945)
      If (feature 107 <= 93.239998)
       Predict: 66.8542630909091
      Else (feature 107 > 93.239998)
       If (feature 58 <= 76.8599965)
        Predict: 67.9229339090909
       Else (feature 58 > 76.8599965)
        Predict: 68.222094965035
  Tree 40:
    If (feature 112 <= 71.369997)
     If (feature 71 <= 34.7399975)
      If (feature 79 <= 29.789998)
       Predict: 39.3079702097902
      Else (feature 79 > 29.789998)
       Predict: 39.7724456153846
     Else (feature 71 > 34.7399975)
      If (feature 37 <= 30.509998)
       If (feature 0 <= 32.039998)
        Predict: 37.9686697272727
       Else (feature 0 > 32.039998)
        If (feature 65 <= 41.93999650000001)
         Predict: 38.3362222727273
        Else (feature 65 > 41.93999650000001)
         Predict: 38.76419404195801
      Else (feature 37 > 30.509998)
       If (feature 71 <= 37.979997999999995)
        Predict: 37.1794390559441
       Else (feature 71 > 37.979997999999995)
        Predict: 37.4060124475524
    Else (feature 112 > 71.369997)
     If (feature 54 <= 83.069996)
      If (feature 113 <= 91.529995)
       If (feature 51 <= 86.309994)
        If (feature 90 <= 80.1899985)
         Predict: 67.9229339090909
        Else (feature 90 > 80.1899985)
         Predict: 68.22209496503501
       Else (feature 51 > 86.309994)
        Predict: 66.85426309090911
      Else (feature 113 > 91.529995)
       If (feature 62 <= 69.569996)
        If (feature 71 <= 65.879997)
         Predict: 72.2542627412587
        Else (feature 71 > 65.879997)
         Predict: 72.25761926573429
       Else (feature 62 > 69.569996)
        If (feature 122 <= 87.20999499999999)
         Predict: 70.7777588741259
        Else (feature 122 > 87.20999499999999)
         Predict: 71.60863327097901
     Else (feature 54 > 83.069996)
      Predict: 55.52307444055941
  Tree 41:
    If (feature 119 <= 57.5999985)
     If (feature 124 <= 51.3899975)
      If (feature 102 <= 51.209998999999996)
       If (feature 69 <= 41.2199995)
        If (feature 66 <= 35.1899985)
         Predict: 37.9686697272727
        Else (feature 66 > 35.1899985)
         Predict: 37.9183200909091
       Else (feature 69 > 41.2199995)
        If (feature 1 <= 32.8499985)
         Predict: 38.3362222727273
        Else (feature 1 > 32.8499985)
         Predict: 38.76419404195801
      Else (feature 102 > 51.209998999999996)
       If (feature 9 <= 28.4399985)
        Predict: 37.4060124475524
       Else (feature 9 > 28.4399985)
        Predict: 37.1794390559441
     Else (feature 124 > 51.3899975)
      If (feature 0 <= 32.039998)
       Predict: 39.7724456153846
      Else (feature 0 > 32.039998)
       Predict: 40.618320055944
    Else (feature 119 > 57.5999985)
     If (feature 88 <= 78.74999600000001)
      If (feature 50 <= 41.9399985)
       Predict: 67.2293675734266
      Else (feature 50 > 41.9399985)
       If (feature 103 <= 89.099995)
        If (feature 87 <= 48.239998)
         Predict: 39.3079702097902
        Else (feature 87 > 48.239998)
         Predict: 45.1434945804196
       Else (feature 103 > 89.099995)
        Predict: 55.52307444055941
     Else (feature 88 > 78.74999600000001)
      If (feature 68 <= 66.239998)
       If (feature 122 <= 89.63999949999999)
        Predict: 67.9229339090909
       Else (feature 122 > 89.63999949999999)
        Predict: 66.85426309090909
      Else (feature 68 > 66.239998)
       If (feature 1 <= 53.1899985)
        Predict: 70.7777588741259
       Else (feature 1 > 53.1899985)
        If (feature 1 <= 54.179998)
         Predict: 71.60569626223773
        Else (feature 1 > 54.179998)
         Predict: 72.25761926573432
  Tree 42:
    If (feature 13 <= 29.5199985)
     If (feature 90 <= 37.1699985)
      If (feature 89 <= 36.6299975)
       Predict: 39.7724456153846
      Else (feature 89 > 36.6299975)
       Predict: 38.76419404195801
     Else (feature 90 > 37.1699985)
      If (feature 118 <= 53.009998499999995)
       If (feature 63 <= 41.8499985)
        Predict: 38.3362222727273
       Else (feature 63 > 41.8499985)
        If (feature 52 <= 37.169998)
         Predict: 37.8289495104895
        Else (feature 52 > 37.169998)
         Predict: 37.918320090909106
      Else (feature 118 > 53.009998499999995)
       If (feature 95 <= 39.329998)
        Predict: 37.1794390559441
       Else (feature 95 > 39.329998)
        Predict: 37.4060124475524
    Else (feature 13 > 29.5199985)
     If (feature 17 <= 51.7499985)
      If (feature 137 <= 62.0999985)
       If (feature 50 <= 89.459999)
        If (feature 0 <= 44.0999985)
         Predict: 67.2293675734266
        Else (feature 0 > 44.0999985)
         Predict: 66.8542630909091
       Else (feature 50 > 89.459999)
        Predict: 67.9229339090909
      Else (feature 137 > 62.0999985)
       If (feature 100 <= 91.9499935)
        Predict: 70.7777588741259
       Else (feature 100 > 91.9499935)
        If (feature 94 <= 81.989994)
         Predict: 72.2542627412587
        Else (feature 94 > 81.989994)
         Predict: 71.64503184265736
     Else (feature 17 > 51.7499985)
      If (feature 7 <= 51.569998)
       Predict: 55.5230744405594
      Else (feature 7 > 51.569998)
       Predict: 45.1434945804196
  Tree 43:
    If (feature 122 <= 80.36999499999999)
     If (feature 15 <= 48.68999650000001)
      If (feature 71 <= 34.7399975)
       If (feature 109 <= 52.289997)
        Predict: 39.7724456153846
       Else (feature 109 > 52.289997)
        Predict: 39.3079702097902
      Else (feature 71 > 34.7399975)
       If (feature 17 <= 27.7199985)
        If (feature 109 <= 49.499998000000005)
         Predict: 38.3362222727273
        Else (feature 109 > 49.499998000000005)
         Predict: 37.85689355384614
       Else (feature 17 > 27.7199985)
        If (feature 0 <= 33.5699995)
         Predict: 37.1794390559441
        Else (feature 0 > 33.5699995)
         Predict: 37.4060124475524
     Else (feature 15 > 48.68999650000001)
      Predict: 45.1434945804196
    Else (feature 122 > 80.36999499999999)
     If (feature 97 <= 83.6099965)
      Predict: 55.52307444055939
     Else (feature 97 > 83.6099965)
      If (feature 113 <= 91.529995)
       If (feature 81 <= 70.6499975)
        Predict: 67.9229339090909
       Else (feature 81 > 70.6499975)
        Predict: 68.22209496503501
      Else (feature 113 > 91.529995)
       If (feature 2 <= 52.649998)
        If (feature 127 <= 83.9699975)
         Predict: 71.5053115734265
        Else (feature 127 > 83.9699975)
         Predict: 71.64503184265736
       Else (feature 2 > 52.649998)
        If (feature 0 <= 55.3499985)
         Predict: 72.2542627412587
        Else (feature 0 > 55.3499985)
         Predict: 72.2576192657343
  Tree 44:
    If (feature 50 <= 82.4399985)
     If (feature 135 <= 40.5899985)
      If (feature 0 <= 32.8499985)
       If (feature 0 <= 32.039998)
        Predict: 37.9686697272727
       Else (feature 0 > 32.039998)
        Predict: 37.8289495104895
      Else (feature 0 > 32.8499985)
       Predict: 37.4060124475524
     Else (feature 135 > 40.5899985)
      If (feature 55 <= 43.3799995)
       If (feature 130 <= 44.1899985)
        Predict: 38.764194041958
       Else (feature 130 > 44.1899985)
        Predict: 39.307970209790206
      Else (feature 55 > 43.3799995)
       If (feature 0 <= 32.039998)
        Predict: 39.7724456153846
       Else (feature 0 > 32.039998)
        Predict: 40.61832005594398
    Else (feature 50 > 82.4399985)
     If (feature 112 <= 91.43999500000001)
      If (feature 76 <= 59.8499985)
       If (feature 65 <= 71.0099985)
        Predict: 67.9229339090909
       Else (feature 65 > 71.0099985)
        Predict: 68.22209496503498
      Else (feature 76 > 59.8499985)
       Predict: 66.85426309090911
     Else (feature 112 > 91.43999500000001)
      If (feature 124 <= 90.8099935)
       If (feature 0 <= 55.3499985)
        Predict: 72.2542627412587
       Else (feature 0 > 55.3499985)
        Predict: 72.2576192657343
      Else (feature 124 > 90.8099935)
       If (feature 0 <= 32.8499985)
        Predict: 71.6509058601399
       Else (feature 0 > 32.8499985)
        Predict: 71.63915782517479
  Tree 45:
    If (feature 128 <= 52.829998)
     If (feature 62 <= 38.789999)
      Predict: 39.3079702097902
     Else (feature 62 > 38.789999)
      If (feature 70 <= 39.059997499999994)
       Predict: 37.4060124475524
      Else (feature 70 > 39.059997499999994)
       If (feature 121 <= 49.679998499999996)
        Predict: 37.8289495104895
       Else (feature 121 > 49.679998499999996)
        Predict: 37.918320090909106
    Else (feature 128 > 52.829998)
     If (feature 12 <= 51.119999)
      If (feature 92 <= 83.159996)
       If (feature 96 <= 85.49999600000001)
        If (feature 0 <= 44.0999985)
         Predict: 67.2293675734266
        Else (feature 0 > 44.0999985)
         Predict: 66.85426309090911
       Else (feature 96 > 85.49999600000001)
        If (feature 92 <= 80.8199995)
         Predict: 67.9229339090909
        Else (feature 92 > 80.8199995)
         Predict: 68.222094965035
      Else (feature 92 > 83.159996)
       If (feature 142 <= 55.4399985)
        Predict: 71.5053115734265
       Else (feature 142 > 55.4399985)
        If (feature 92 <= 87.029995)
         Predict: 71.6391578251748
        Else (feature 92 > 87.029995)
         Predict: 71.6509058601399
     Else (feature 12 > 51.119999)
      If (feature 88 <= 77.0099945)
       Predict: 55.5230744405594
      Else (feature 88 > 77.0099945)
       Predict: 45.1434945804196
  Tree 46:
    If (feature 101 <= 87.3899955)
     If (feature 134 <= 45.8099995)
      If (feature 126 <= 50.039997)
       If (feature 3 <= 29.8799985)
        Predict: 39.7724456153846
       Else (feature 3 > 29.8799985)
        If (feature 0 <= 32.039998)
         Predict: 37.9686697272727
        Else (feature 0 > 32.039998)
         Predict: 38.3362222727273
      Else (feature 126 > 50.039997)
       Predict: 37.1794390559441
     Else (feature 134 > 45.8099995)
      Predict: 45.14349458041962
    Else (feature 101 > 87.3899955)
     If (feature 56 <= 80.7299955)
      If (feature 112 <= 90.0899925)
       Predict: 66.8542630909091
      Else (feature 112 > 90.0899925)
       If (feature 96 <= 86.12999350000001)
        If (feature 49 <= 86.84999450000001)
         Predict: 72.2576192657343
        Else (feature 49 > 86.84999450000001)
         Predict: 72.2542627412587
       Else (feature 96 > 86.12999350000001)
        If (feature 99 <= 89.1899985)
         Predict: 70.7777588741259
        Else (feature 99 > 89.1899985)
         Predict: 71.61238857482515
     Else (feature 56 > 80.7299955)
      Predict: 55.52307444055941
  Tree 47:
    If (feature 80 <= 55.3499985)
     If (feature 53 <= 41.759997999999996)
      If (feature 55 <= 40.0499995)
       If (feature 1 <= 32.579998)
        If (feature 127 <= 47.5199985)
         Predict: 37.8289495104895
        Else (feature 127 > 47.5199985)
         Predict: 37.968669727272705
       Else (feature 1 > 32.579998)
        If (feature 95 <= 37.169998)
         Predict: 38.3362222727273
        Else (feature 95 > 37.169998)
         Predict: 38.76419404195801
      Else (feature 55 > 40.0499995)
       If (feature 0 <= 33.5699995)
        Predict: 37.1794390559441
       Else (feature 0 > 33.5699995)
        Predict: 37.4060124475524
     Else (feature 53 > 41.759997999999996)
      If (feature 99 <= 49.679998)
       If (feature 0 <= 32.039998)
        Predict: 39.7724456153846
       Else (feature 0 > 32.039998)
        Predict: 39.307970209790206
      Else (feature 99 > 49.679998)
       Predict: 40.618320055944025
    Else (feature 80 > 55.3499985)
     If (feature 80 <= 68.7599945)
      If (feature 40 <= 74.069996)
       If (feature 96 <= 84.95999900000001)
        Predict: 72.2576192657343
       Else (feature 96 > 84.95999900000001)
        If (feature 52 <= 80.5499955)
         Predict: 71.64503184265736
        Else (feature 52 > 80.5499955)
         Predict: 71.50531157342652
      Else (feature 40 > 74.069996)
       Predict: 70.77775887412592
     Else (feature 80 > 68.7599945)
      If (feature 0 <= 54.449996999999996)
       Predict: 66.8542630909091
      Else (feature 0 > 54.449996999999996)
       Predict: 67.9229339090909
  Tree 48:
    If (feature 34 <= 37.7999995)
     If (feature 5 <= 32.3999985)
      If (feature 0 <= 34.739998)
       If (feature 72 <= 38.429998)
        If (feature 0 <= 32.039998)
         Predict: 37.9686697272727
        Else (feature 0 > 32.039998)
         Predict: 37.9183200909091
       Else (feature 72 > 38.429998)
        Predict: 37.82894951048951
      Else (feature 0 > 34.739998)
       Predict: 37.4060124475524
     Else (feature 5 > 32.3999985)
      If (feature 70 <= 32.669997499999994)
       Predict: 39.3079702097902
      Else (feature 70 > 32.669997499999994)
       Predict: 38.76419404195801
    Else (feature 34 > 37.7999995)
     If (feature 69 <= 78.029995)
      If (feature 110 <= 92.699997)
       If (feature 131 <= 71.279999)
        If (feature 52 <= 82.0799945)
         Predict: 67.9229339090909
        Else (feature 52 > 82.0799945)
         Predict: 68.22209496503501
       Else (feature 131 > 71.279999)
        Predict: 66.8542630909091
      Else (feature 110 > 92.699997)
       If (feature 49 <= 89.1899985)
        If (feature 134 <= 63.6299975)
         Predict: 70.7777588741259
        Else (feature 134 > 63.6299975)
         Predict: 71.55384300233096
       Else (feature 49 > 89.1899985)
        Predict: 72.2542627412587
     Else (feature 69 > 78.029995)
      Predict: 55.52307444055941
  Tree 49:
    If (feature 123 <= 59.219997500000005)
     If (feature 125 <= 50.579998)
      If (feature 98 <= 41.039999)
       Predict: 38.764194041958
      Else (feature 98 > 41.039999)
       If (feature 102 <= 51.209998999999996)
        If (feature 66 <= 43.1099965)
         Predict: 37.9434949090909
        Else (feature 66 > 43.1099965)
         Predict: 37.82894951048951
       Else (feature 102 > 51.209998999999996)
        If (feature 127 <= 48.329998)
         Predict: 37.4060124475524
        Else (feature 127 > 48.329998)
         Predict: 37.1794390559441
     Else (feature 125 > 50.579998)
      If (feature 73 <= 34.0199985)
       If (feature 140 <= 38.069998)
        Predict: 39.7724456153846
       Else (feature 140 > 38.069998)
        Predict: 39.307970209790206
      Else (feature 73 > 34.0199985)
       Predict: 40.618320055944
    Else (feature 123 > 59.219997500000005)
     If (feature 25 <= 51.5699975)
      If (feature 19 <= 48.959998999999996)
       If (feature 90 <= 79.289997)
        If (feature 56 <= 40.5899985)
         Predict: 67.2293675734266
        Else (feature 56 > 40.5899985)
         Predict: 66.85426309090911
       Else (feature 90 > 79.289997)
        If (feature 65 <= 71.0099985)
         Predict: 67.9229339090909
        Else (feature 65 > 71.0099985)
         Predict: 68.22209496503501
      Else (feature 19 > 48.959998999999996)
       If (feature 83 <= 73.70999499999999)
        If (feature 56 <= 18.2699985)
         Predict: 72.2542627412587
        Else (feature 56 > 18.2699985)
         Predict: 72.25761926573432
       Else (feature 83 > 73.70999499999999)
        Predict: 71.5053115734265
     Else (feature 25 > 51.5699975)
      If (feature 3 <= 54.1799965)
       Predict: 55.5230744405594
      Else (feature 3 > 54.1799965)
       Predict: 45.1434945804196
  Tree 50:
    If (feature 122 <= 80.36999499999999)
     If (feature 139 <= 38.33999849999999)
      If (feature 49 <= 44.0999985)
       If (feature 60 <= 35.009997999999996)
        Predict: 37.1794390559441
       Else (feature 60 > 35.009997999999996)
        If (feature 91 <= 38.0699995)
         Predict: 38.407550900932414
        Else (feature 91 > 38.0699995)
         Predict: 37.90856485489511
      Else (feature 49 > 44.0999985)
       If (feature 118 <= 53.369999)
        Predict: 39.7724456153846
       Else (feature 118 > 53.369999)
        Predict: 40.618320055944
     Else (feature 139 > 38.33999849999999)
      Predict: 45.143494580419656
    Else (feature 122 > 80.36999499999999)
     If (feature 127 <= 78.659996)
      Predict: 55.5230744405594
     Else (feature 127 > 78.659996)
      If (feature 110 <= 92.699997)
       If (feature 98 <= 88.1099965)
        If (feature 0 <= 36.629999)
         Predict: 68.222094965035
        Else (feature 0 > 36.629999)
         Predict: 67.9229339090909
       Else (feature 98 > 88.1099965)
        Predict: 66.85426309090911
      Else (feature 110 > 92.699997)
       If (feature 77 <= 56.159998)
        If (feature 92 <= 87.029995)
         Predict: 71.6391578251748
        Else (feature 92 > 87.029995)
         Predict: 71.6509058601399
       Else (feature 77 > 56.159998)
        Predict: 71.5053115734265
  Tree 51:
    If (feature 129 <= 52.019996500000005)
     If (feature 45 <= 40.589998)
      If (feature 4 <= 31.589998)
       If (feature 137 <= 38.789997)
        Predict: 37.8289495104895
       Else (feature 137 > 38.789997)
        If (feature 97 <= 41.129997)
         Predict: 37.9686697272727
        Else (feature 97 > 41.129997)
         Predict: 37.918320090909106
      Else (feature 4 > 31.589998)
       If (feature 0 <= 34.0199985)
        Predict: 38.3362222727273
       Else (feature 0 > 34.0199985)
        Predict: 38.76419404195801
     Else (feature 45 > 40.589998)
      If (feature 92 <= 41.8499985)
       If (feature 120 <= 52.829998)
        Predict: 39.7724456153846
       Else (feature 120 > 52.829998)
        Predict: 39.3079702097902
      Else (feature 92 > 41.8499985)
       Predict: 40.61832005594399
    Else (feature 129 > 52.019996500000005)
     If (feature 62 <= 73.8899955)
      If (feature 67 <= 68.849995)
       If (feature 83 <= 36.809997499999994)
        Predict: 67.2293675734266
       Else (feature 83 > 36.809997499999994)
        If (feature 0 <= 36.629999)
         Predict: 68.222094965035
        Else (feature 0 > 36.629999)
         Predict: 67.9229339090909
      Else (feature 67 > 68.849995)
       If (feature 129 <= 78.569996)
        Predict: 70.7777588741259
       Else (feature 129 > 78.569996)
        If (feature 89 <= 79.55999750000001)
         Predict: 72.2576192657343
        Else (feature 89 > 79.55999750000001)
         Predict: 71.57810871678319
     Else (feature 62 > 73.8899955)
      Predict: 55.52307444055941
  Tree 52:
    If (feature 103 <= 73.7099975)
     If (feature 123 <= 51.3899975)
      If (feature 122 <= 50.759998499999995)
       If (feature 75 <= 37.16999800000001)
        Predict: 38.3362222727273
       Else (feature 75 > 37.16999800000001)
        Predict: 38.76419404195801
      Else (feature 122 > 50.759998499999995)
       If (feature 48 <= 40.8599985)
        Predict: 37.4060124475524
       Else (feature 48 > 40.8599985)
        Predict: 37.918320090909106
     Else (feature 123 > 51.3899975)
      If (feature 88 <= 46.709997)
       If (feature 0 <= 32.039998)
        Predict: 39.7724456153846
       Else (feature 0 > 32.039998)
        Predict: 39.3079702097902
      Else (feature 88 > 46.709997)
       Predict: 40.61832005594399
    Else (feature 103 > 73.7099975)
     If (feature 15 <= 52.109997)
      If (feature 113 <= 91.529995)
       If (feature 87 <= 81.80999349999999)
        Predict: 66.8542630909091
       Else (feature 87 > 81.80999349999999)
        If (feature 83 <= 71.72999949999999)
         Predict: 67.9229339090909
        Else (feature 83 > 71.72999949999999)
         Predict: 68.222094965035
      Else (feature 113 > 91.529995)
       If (feature 54 <= 77.84999450000001)
        If (feature 95 <= 84.59999450000001)
         Predict: 72.25650042424245
        Else (feature 95 > 84.59999450000001)
         Predict: 71.608633270979
       Else (feature 54 > 77.84999450000001)
        Predict: 70.7777588741259
     Else (feature 15 > 52.109997)
      Predict: 55.52307444055941
  Tree 53:
    If (feature 128 <= 52.829998)
     If (feature 124 <= 51.3899975)
      If (feature 94 <= 37.17)
       Predict: 38.764194041958
      Else (feature 94 > 37.17)
       If (feature 140 <= 36.629997)
        If (feature 76 <= 35.1899985)
         Predict: 37.9434949090909
        Else (feature 76 > 35.1899985)
         Predict: 37.82894951048951
       Else (feature 140 > 36.629997)
        Predict: 37.4060124475524
     Else (feature 124 > 51.3899975)
      If (feature 82 <= 37.259997999999996)
       If (feature 80 <= 31.859999000000002)
        Predict: 39.3079702097902
       Else (feature 80 > 31.859999000000002)
        Predict: 39.7724456153846
      Else (feature 82 > 37.259997999999996)
       Predict: 40.618320055944
    Else (feature 128 > 52.829998)
     If (feature 25 <= 51.5699975)
      If (feature 27 <= 48.869999)
       If (feature 104 <= 94.319996)
        If (feature 62 <= 34.6499975)
         Predict: 67.2293675734266
        Else (feature 62 > 34.6499975)
         Predict: 66.8542630909091
       Else (feature 104 > 94.319996)
        Predict: 68.222094965035
      Else (feature 27 > 48.869999)
       If (feature 0 <= 53.63999750000001)
        If (feature 123 <= 87.02999500000001)
         Predict: 71.5053115734265
        Else (feature 123 > 87.02999500000001)
         Predict: 71.6391578251748
       Else (feature 0 > 53.63999750000001)
        If (feature 0 <= 55.3499985)
         Predict: 72.2542627412587
        Else (feature 0 > 55.3499985)
         Predict: 72.25761926573429
     Else (feature 25 > 51.5699975)
      Predict: 45.14349458041954
  Tree 54:
    If (feature 115 <= 84.59999450000001)
     If (feature 120 <= 69.1199955)
      If (feature 120 <= 52.469997500000005)
       If (feature 112 <= 51.0299965)
        If (feature 71 <= 45.269997)
         Predict: 38.3362222727273
        Else (feature 71 > 45.269997)
         Predict: 38.76419404195801
       Else (feature 112 > 51.0299965)
        If (feature 1 <= 33.929998499999996)
         Predict: 37.8587397039627
        Else (feature 1 > 33.929998499999996)
         Predict: 37.40601244755243
      Else (feature 120 > 52.469997500000005)
       If (feature 81 <= 35.0999985)
        If (feature 57 <= 39.8699985)
         Predict: 39.3079702097902
        Else (feature 57 > 39.8699985)
         Predict: 39.772445615384605
       Else (feature 81 > 35.0999985)
        Predict: 40.618320055944
     Else (feature 120 > 69.1199955)
      Predict: 45.1434945804196
    Else (feature 115 > 84.59999450000001)
     If (feature 93 <= 80.189999)
      Predict: 55.5230744405594
     Else (feature 93 > 80.189999)
      If (feature 38 <= 71.8199995)
       If (feature 127 <= 81.89999750000001)
        Predict: 70.7777588741259
       Else (feature 127 > 81.89999750000001)
        If (feature 87 <= 82.43999500000001)
         Predict: 72.25538158275056
        Else (feature 87 > 82.43999500000001)
         Predict: 71.53877313636357
      Else (feature 38 > 71.8199995)
       Predict: 67.92293390909094
  Tree 55:
    If (feature 90 <= 63.8099955)
     If (feature 13 <= 28.169998)
      If (feature 7 <= 30.329998500000002)
       If (feature 110 <= 50.669998)
        Predict: 38.3362222727273
       Else (feature 110 > 50.669998)
        If (feature 69 <= 33.569998500000004)
         Predict: 37.9686697272727
        Else (feature 69 > 33.569998500000004)
         Predict: 37.82894951048951
      Else (feature 7 > 30.329998500000002)
       If (feature 59 <= 35.999998000000005)
        Predict: 37.1794390559441
       Else (feature 59 > 35.999998000000005)
        Predict: 37.4060124475524
     Else (feature 13 > 28.169998)
      If (feature 53 <= 45.449999000000005)
       If (feature 61 <= 39.869997)
        Predict: 39.3079702097902
       Else (feature 61 > 39.869997)
        Predict: 38.76419404195801
      Else (feature 53 > 45.449999000000005)
       Predict: 40.618320055944
    Else (feature 90 > 63.8099955)
     If (feature 51 <= 85.9499935)
      If (feature 80 <= 64.3499965)
       Predict: 70.7777588741259
      Else (feature 80 > 64.3499965)
       If (feature 61 <= 70.4699975)
        If (feature 62 <= 68.489994)
         Predict: 72.2542627412587
        Else (feature 62 > 68.489994)
         Predict: 72.2576192657343
       Else (feature 61 > 70.4699975)
        Predict: 71.63915782517483
     Else (feature 51 > 85.9499935)
      If (feature 0 <= 54.449996999999996)
       Predict: 66.8542630909091
      Else (feature 0 > 54.449996999999996)
       Predict: 67.9229339090909
  Tree 56:
    If (feature 139 <= 39.4199985)
     If (feature 5 <= 33.8399985)
      If (feature 69 <= 39.779999000000004)
       If (feature 0 <= 32.039998)
        Predict: 37.9686697272727
       Else (feature 0 > 32.039998)
        If (feature 66 <= 39.2399975)
         Predict: 37.1794390559441
        Else (feature 66 > 39.2399975)
         Predict: 37.4060124475524
      Else (feature 69 > 39.779999000000004)
       If (feature 0 <= 34.0199985)
        Predict: 38.3362222727273
       Else (feature 0 > 34.0199985)
        Predict: 38.764194041958
     Else (feature 5 > 33.8399985)
      Predict: 40.618320055944025
    Else (feature 139 > 39.4199985)
     If (feature 1 <= 54.179998)
      If (feature 50 <= 84.5999985)
       If (feature 134 <= 45.8099995)
        Predict: 67.2293675734266
       Else (feature 134 > 45.8099995)
        Predict: 68.222094965035
      Else (feature 50 > 84.5999985)
       If (feature 106 <= 96.659996)
        Predict: 71.6391578251748
       Else (feature 106 > 96.659996)
        Predict: 71.65090586013989
     Else (feature 1 > 54.179998)
      If (feature 4 <= 52.3799975)
       Predict: 55.5230744405594
      Else (feature 4 > 52.3799975)
       Predict: 45.1434945804196
  Tree 57:
    If (feature 14 <= 29.249999)
     If (feature 96 <= 37.16999800000001)
      If (feature 0 <= 32.039998)
       Predict: 39.7724456153846
      Else (feature 0 > 32.039998)
       Predict: 38.76419404195799
     Else (feature 96 > 37.16999800000001)
      If (feature 97 <= 41.129997)
       If (feature 102 <= 48.059997499999994)
        Predict: 38.3362222727273
       Else (feature 102 > 48.059997499999994)
        If (feature 103 <= 50.129999)
         Predict: 37.8289495104895
        Else (feature 103 > 50.129999)
         Predict: 37.9686697272727
      Else (feature 97 > 41.129997)
       If (feature 131 <= 44.8199975)
        If (feature 138 <= 37.8899995)
         Predict: 37.1794390559441
        Else (feature 138 > 37.8899995)
         Predict: 37.4060124475524
       Else (feature 131 > 44.8199975)
        Predict: 37.918320090909106
    Else (feature 14 > 29.249999)
     If (feature 9 <= 50.8499985)
      If (feature 133 <= 68.2199935)
       If (feature 54 <= 74.9699975)
        If (feature 0 <= 44.0999985)
         Predict: 67.2293675734266
        Else (feature 0 > 44.0999985)
         Predict: 66.8542630909091
       Else (feature 54 > 74.9699975)
        If (feature 0 <= 36.629999)
         Predict: 68.222094965035
        Else (feature 0 > 36.629999)
         Predict: 67.9229339090909
      Else (feature 133 > 68.2199935)
       If (feature 0 <= 53.63999750000001)
        If (feature 121 <= 89.369999)
         Predict: 71.6509058601399
        Else (feature 121 > 89.369999)
         Predict: 71.63915782517479
       Else (feature 0 > 53.63999750000001)
        Predict: 72.25761926573432
     Else (feature 9 > 50.8499985)
      If (feature 49 <= 84.05999750000001)
       Predict: 55.5230744405594
      Else (feature 49 > 84.05999750000001)
       Predict: 45.1434945804196
  Tree 58:
    If (feature 132 <= 46.799997000000005)
     If (feature 140 <= 37.079998)
      If (feature 116 <= 50.8499985)
       If (feature 0 <= 34.0199985)
        Predict: 38.3362222727273
       Else (feature 0 > 34.0199985)
        Predict: 38.76419404195801
      Else (feature 116 > 50.8499985)
       If (feature 66 <= 43.1099965)
        If (feature 83 <= 33.749998500000004)
         Predict: 37.9686697272727
        Else (feature 83 > 33.749998500000004)
         Predict: 37.918320090909106
       Else (feature 66 > 43.1099965)
        Predict: 37.82894951048951
     Else (feature 140 > 37.079998)
      If (feature 122 <= 51.479997499999996)
       Predict: 39.7724456153846
      Else (feature 122 > 51.479997499999996)
       Predict: 40.618320055944
    Else (feature 132 > 46.799997000000005)
     If (feature 15 <= 52.109997)
      If (feature 67 <= 68.849995)
       If (feature 110 <= 55.4399985)
        Predict: 67.2293675734266
       Else (feature 110 > 55.4399985)
        If (feature 0 <= 36.629999)
         Predict: 68.222094965035
        Else (feature 0 > 36.629999)
         Predict: 67.9229339090909
      Else (feature 67 > 68.849995)
       If (feature 110 <= 96.659996)
        If (feature 73 <= 57.329998)
         Predict: 70.7777588741259
        Else (feature 73 > 57.329998)
         Predict: 71.55697242220276
       Else (feature 110 > 96.659996)
        Predict: 72.25761926573432
     Else (feature 15 > 52.109997)
      If (feature 48 <= 83.24999600000001)
       Predict: 55.5230744405594
      Else (feature 48 > 83.24999600000001)
       Predict: 45.1434945804196
  Tree 59:
    If (feature 122 <= 80.36999499999999)
     If (feature 135 <= 43.829998)
      If (feature 140 <= 36.629997)
       If (feature 97 <= 41.129997)
        If (feature 102 <= 48.059997499999994)
         Predict: 38.3362222727273
        Else (feature 102 > 48.059997499999994)
         Predict: 37.8988096188811
       Else (feature 97 > 41.129997)
        Predict: 37.1794390559441
      Else (feature 140 > 36.629997)
       If (feature 0 <= 32.039998)
        Predict: 39.7724456153846
       Else (feature 0 > 32.039998)
        Predict: 40.618320055944
     Else (feature 135 > 43.829998)
      Predict: 45.1434945804196
    Else (feature 122 > 80.36999499999999)
     If (feature 38 <= 71.369999)
      If (feature 91 <= 82.4399945)
       Predict: 70.7777588741259
      Else (feature 91 > 82.4399945)
       If (feature 100 <= 92.3399965)
        Predict: 72.2542627412587
       Else (feature 100 > 92.3399965)
        If (feature 66 <= 68.849995)
         Predict: 71.6509058601399
        Else (feature 66 > 68.849995)
         Predict: 71.63915782517479
     Else (feature 38 > 71.369999)
      If (feature 0 <= 54.449996999999996)
       Predict: 66.8542630909091
      Else (feature 0 > 54.449996999999996)
       Predict: 67.9229339090909
  Tree 60:
    If (feature 115 <= 84.59999450000001)
     If (feature 62 <= 34.6499975)
      Predict: 67.2293675734266
     Else (feature 62 > 34.6499975)
      If (feature 105 <= 71.1899965)
       If (feature 48 <= 43.5599995)
        If (feature 102 <= 48.059997499999994)
         Predict: 38.51963874525474
        Else (feature 102 > 48.059997499999994)
         Predict: 37.547746710489506
       Else (feature 48 > 43.5599995)
        If (feature 92 <= 41.8499985)
         Predict: 39.656326763986
        Else (feature 92 > 41.8499985)
         Predict: 40.618320055944
      Else (feature 105 > 71.1899965)
       Predict: 45.1434945804196
    Else (feature 115 > 84.59999450000001)
     If (feature 3 <= 51.569998)
      If (feature 59 <= 73.16999799999999)
       Predict: 66.8542630909091
      Else (feature 59 > 73.16999799999999)
       Predict: 68.222094965035
     Else (feature 3 > 51.569998)
      If (feature 1 <= 52.469997)
       Predict: 72.2542627412587
      Else (feature 1 > 52.469997)
       Predict: 70.7777588741259
  Tree 61:
    If (feature 100 <= 86.579998)
     If (feature 141 <= 46.619999)
      If (feature 1 <= 35.009998499999995)
       If (feature 7 <= 30.329998500000002)
        If (feature 143 <= 32.579998)
         Predict: 38.3362222727273
        Else (feature 143 > 32.579998)
         Predict: 37.91278164055942
       Else (feature 7 > 30.329998500000002)
        If (feature 128 <= 47.519996500000005)
         Predict: 37.1794390559441
        Else (feature 128 > 47.519996500000005)
         Predict: 37.4060124475524
      Else (feature 1 > 35.009998499999995)
       If (feature 56 <= 40.1399995)
        Predict: 39.3079702097902
       Else (feature 56 > 40.1399995)
        Predict: 38.76419404195801
     Else (feature 141 > 46.619999)
      Predict: 45.143494580419656
    Else (feature 100 > 86.579998)
     If (feature 70 <= 77.2199975)
      If (feature 63 <= 70.739998)
       If (feature 139 <= 61.109997)
        Predict: 70.7777588741259
       Else (feature 139 > 61.109997)
        If (feature 88 <= 81.5099985)
         Predict: 72.2542627412587
        Else (feature 88 > 81.5099985)
         Predict: 71.64503184265736
      Else (feature 63 > 70.739998)
       If (feature 132 <= 68.849995)
        If (feature 0 <= 36.629999)
         Predict: 68.222094965035
        Else (feature 0 > 36.629999)
         Predict: 67.9229339090909
       Else (feature 132 > 68.849995)
        Predict: 66.85426309090911
     Else (feature 70 > 77.2199975)
      Predict: 55.52307444055941
  Tree 62:
    If (feature 129 <= 52.019996500000005)
     If (feature 132 <= 44.549999)
      If (feature 78 <= 36.179998499999996)
       Predict: 38.3362222727273
      Else (feature 78 > 36.179998499999996)
       If (feature 109 <= 50.7599965)
        Predict: 37.8289495104895
       Else (feature 109 > 50.7599965)
        Predict: 37.406012447552406
     Else (feature 132 > 44.549999)
      Predict: 39.3079702097902
    Else (feature 129 > 52.019996500000005)
     If (feature 58 <= 81.80999750000001)
      If (feature 133 <= 68.2199935)
       If (feature 4 <= 51.569998)
        If (feature 87 <= 81.80999349999999)
         Predict: 67.04181533216786
        Else (feature 87 > 81.80999349999999)
         Predict: 68.07251443706295
       Else (feature 4 > 51.569998)
        Predict: 70.77775887412588
      Else (feature 133 > 68.2199935)
       If (feature 93 <= 83.2499965)
        If (feature 81 <= 72.5399975)
         Predict: 72.2542627412587
        Else (feature 81 > 72.5399975)
         Predict: 72.25761926573432
       Else (feature 93 > 83.2499965)
        If (feature 80 <= 62.909998)
         Predict: 71.6509058601399
        Else (feature 80 > 62.909998)
         Predict: 71.50531157342648
     Else (feature 58 > 81.80999750000001)
      Predict: 55.52307444055941
  Tree 63:
    If (feature 122 <= 59.4899975)
     If (feature 140 <= 36.629997)
      Predict: 37.9686697272727
     Else (feature 140 > 36.629997)
      If (feature 62 <= 38.789999)
       Predict: 39.3079702097902
      Else (feature 62 > 38.789999)
       Predict: 38.76419404195801
    Else (feature 122 > 59.4899975)
     If (feature 3 <= 53.0999965)
      If (feature 3 <= 51.569998)
       If (feature 106 <= 95.03999350000001)
        If (feature 0 <= 44.0999985)
         Predict: 67.2293675734266
        Else (feature 0 > 44.0999985)
         Predict: 66.85426309090911
       Else (feature 106 > 95.03999350000001)
        Predict: 68.22209496503501
      Else (feature 3 > 51.569998)
       Predict: 71.6391578251748
     Else (feature 3 > 53.0999965)
      Predict: 45.14349458041958
  Tree 64:
    If (feature 103 <= 89.099995)
     If (feature 122 <= 59.4899975)
      If (feature 125 <= 50.579998)
       If (feature 75 <= 36.179998499999996)
        Predict: 37.1794390559441
       Else (feature 75 > 36.179998499999996)
        If (feature 64 <= 42.119999)
         Predict: 38.3362222727273
        Else (feature 64 > 42.119999)
         Predict: 37.858739703962705
      Else (feature 125 > 50.579998)
       If (feature 73 <= 34.0199985)
        If (feature 97 <= 38.789997)
         Predict: 39.7724456153846
        Else (feature 97 > 38.789997)
         Predict: 39.3079702097902
       Else (feature 73 > 34.0199985)
        Predict: 40.61832005594401
     Else (feature 122 > 59.4899975)
      Predict: 45.1434945804196
    Else (feature 103 > 89.099995)
     If (feature 19 <= 48.959998999999996)
      If (feature 75 <= 58.2299975)
       If (feature 0 <= 36.629999)
        Predict: 68.222094965035
       Else (feature 0 > 36.629999)
        Predict: 67.9229339090909
      Else (feature 75 > 58.2299975)
       Predict: 66.85426309090911
     Else (feature 19 > 48.959998999999996)
      If (feature 0 <= 53.63999750000001)
       If (feature 90 <= 82.529995)
        Predict: 71.5053115734265
       Else (feature 90 > 82.529995)
        Predict: 71.6391578251748
      Else (feature 0 > 53.63999750000001)
       If (feature 0 <= 55.3499985)
        Predict: 72.2542627412587
       Else (feature 0 > 55.3499985)
        Predict: 72.25761926573429
  Tree 65:
    If (feature 143 <= 45.449996999999996)
     If (feature 123 <= 52.199996999999996)
      If (feature 111 <= 50.759996)
       Predict: 38.3362222727273
      Else (feature 111 > 50.759996)
       If (feature 0 <= 32.039998)
        Predict: 37.9686697272727
       Else (feature 0 > 32.039998)
        Predict: 37.918320090909106
     Else (feature 123 > 52.199996999999996)
      If (feature 65 <= 35.459998999999996)
       Predict: 39.3079702097902
      Else (feature 65 > 35.459998999999996)
       Predict: 39.772445615384584
    Else (feature 143 > 45.449996999999996)
     If (feature 109 <= 94.5899965)
      If (feature 76 <= 56.8799975)
       Predict: 67.9229339090909
      Else (feature 76 > 56.8799975)
       Predict: 68.22209496503501
     Else (feature 109 > 94.5899965)
      If (feature 119 <= 89.819996)
       Predict: 70.7777588741259
      Else (feature 119 > 89.819996)
       If (feature 1 <= 54.179998)
        If (feature 107 <= 94.1399955)
         Predict: 71.6391578251748
        Else (feature 107 > 94.1399955)
         Predict: 71.65090586013991
       Else (feature 1 > 54.179998)
        Predict: 72.25761926573432
  Tree 66:
    If (feature 128 <= 52.829998)
     If (feature 13 <= 28.169998)
      If (feature 81 <= 36.989998)
       If (feature 10 <= 28.259998500000002)
        Predict: 37.4060124475524
       Else (feature 10 > 28.259998500000002)
        Predict: 37.1794390559441
      Else (feature 81 > 36.989998)
       If (feature 115 <= 51.119999)
        Predict: 38.3362222727273
       Else (feature 115 > 51.119999)
        Predict: 37.82894951048951
     Else (feature 13 > 28.169998)
      If (feature 81 <= 34.739998)
       If (feature 137 <= 39.0599975)
        Predict: 38.764194041958
       Else (feature 137 > 39.0599975)
        Predict: 39.3079702097902
      Else (feature 81 > 34.739998)
       Predict: 37.918320090909106
    Else (feature 128 > 52.829998)
     If (feature 15 <= 52.109997)
      If (feature 24 <= 48.509998)
       If (feature 58 <= 75.239998)
        If (feature 75 <= 26.639999500000002)
         Predict: 67.2293675734266
        Else (feature 75 > 26.639999500000002)
         Predict: 66.8542630909091
       Else (feature 58 > 75.239998)
        If (feature 117 <= 93.5999985)
         Predict: 67.9229339090909
        Else (feature 117 > 93.5999985)
         Predict: 68.22209496503501
      Else (feature 24 > 48.509998)
       If (feature 132 <= 69.83999650000001)
        If (feature 129 <= 78.569996)
         Predict: 70.7777588741259
        Else (feature 129 > 78.569996)
         Predict: 71.50531157342651
       Else (feature 132 > 69.83999650000001)
        If (feature 84 <= 74.8799975)
         Predict: 72.2542627412587
        Else (feature 84 > 74.8799975)
         Predict: 72.25761926573432
     Else (feature 15 > 52.109997)
      Predict: 45.143494580419656
  Tree 67:
    If (feature 113 <= 83.60999699999999)
     If (feature 48 <= 38.879999)
      Predict: 67.2293675734266
     Else (feature 48 > 38.879999)
      If (feature 129 <= 48.329998)
       If (feature 128 <= 48.869999)
        Predict: 39.7724456153846
       Else (feature 128 > 48.869999)
        Predict: 37.91832009090909
      Else (feature 129 > 48.329998)
       Predict: 45.1434945804196
    Else (feature 113 > 83.60999699999999)
     If (feature 125 <= 87.2099955)
      If (feature 84 <= 78.569996)
       Predict: 66.8542630909091
      Else (feature 84 > 78.569996)
       Predict: 68.22209496503498
     Else (feature 125 > 87.2099955)
      If (feature 128 <= 84.329998)
       If (feature 71 <= 65.879997)
        Predict: 72.2542627412587
       Else (feature 71 > 65.879997)
        Predict: 72.25761926573429
      Else (feature 128 > 84.329998)
       If (feature 101 <= 95.03999350000001)
        Predict: 71.6391578251748
       Else (feature 101 > 95.03999350000001)
        Predict: 71.65090586013991
  Tree 68:
    If (feature 123 <= 59.219997500000005)
     If (feature 124 <= 51.3899975)
      If (feature 58 <= 41.129997)
       Predict: 37.4060124475524
      Else (feature 58 > 41.129997)
       If (feature 0 <= 32.8499985)
        Predict: 37.8289495104895
       Else (feature 0 > 32.8499985)
        Predict: 37.91832009090909
     Else (feature 124 > 51.3899975)
      If (feature 49 <= 65.42999800000001)
       If (feature 100 <= 47.159998)
        Predict: 39.7724456153846
       Else (feature 100 > 47.159998)
        Predict: 39.3079702097902
      Else (feature 49 > 65.42999800000001)
       Predict: 40.618320055944
    Else (feature 123 > 59.219997500000005)
     If (feature 92 <= 83.159996)
      If (feature 108 <= 93.329998)
       If (feature 0 <= 44.0999985)
        Predict: 67.2293675734266
       Else (feature 0 > 44.0999985)
        Predict: 66.8542630909091
      Else (feature 108 > 93.329998)
       Predict: 68.222094965035
     Else (feature 92 > 83.159996)
      If (feature 120 <= 88.10999699999999)
       Predict: 70.7777588741259
      Else (feature 120 > 88.10999699999999)
       If (feature 129 <= 79.82999799999999)
        Predict: 71.5053115734265
       Else (feature 129 > 79.82999799999999)
        If (feature 139 <= 61.6499975)
         Predict: 71.6509058601399
        Else (feature 139 > 61.6499975)
         Predict: 71.63915782517478
  Tree 69:
    If (feature 34 <= 31.679998499999996)
     If (feature 49 <= 44.0999985)
      If (feature 96 <= 38.249998000000005)
       If (feature 1 <= 32.8499985)
        Predict: 38.3362222727273
       Else (feature 1 > 32.8499985)
        Predict: 38.764194041958
      Else (feature 96 > 38.249998000000005)
       If (feature 113 <= 56.519996500000005)
        Predict: 37.4060124475524
       Else (feature 113 > 56.519996500000005)
        If (feature 49 <= 38.25)
         Predict: 37.9686697272727
        Else (feature 49 > 38.25)
         Predict: 37.918320090909106
     Else (feature 49 > 44.0999985)
      Predict: 39.7724456153846
    Else (feature 34 > 31.679998499999996)
     If (feature 123 <= 59.219997500000005)
      Predict: 39.3079702097902
     Else (feature 123 > 59.219997500000005)
      If (feature 40 <= 75.2399975)
       If (feature 133 <= 68.2199935)
        If (feature 0 <= 44.0999985)
         Predict: 67.2293675734266
        Else (feature 0 > 44.0999985)
         Predict: 67.92293390909089
       Else (feature 133 > 68.2199935)
        If (feature 87 <= 82.43999500000001)
         Predict: 72.2542627412587
        Else (feature 87 > 82.43999500000001)
         Predict: 71.64503184265735
      Else (feature 40 > 75.2399975)
       Predict: 55.52307444055941
  Tree 70:
    If (feature 120 <= 81.35999699999999)
     If (feature 129 <= 52.019996500000005)
      If (feature 124 <= 50.489998)
       If (feature 66 <= 40.139997)
        If (feature 0 <= 33.5699995)
         Predict: 37.1794390559441
        Else (feature 0 > 33.5699995)
         Predict: 37.4060124475524
       Else (feature 66 > 40.139997)
        If (feature 110 <= 50.669998)
         Predict: 38.3362222727273
        Else (feature 110 > 50.669998)
         Predict: 37.82894951048951
      Else (feature 124 > 50.489998)
       If (feature 100 <= 47.159998)
        Predict: 39.7724456153846
       Else (feature 100 > 47.159998)
        Predict: 39.3079702097902
     Else (feature 129 > 52.019996500000005)
      Predict: 45.1434945804196
    Else (feature 120 > 81.35999699999999)
     If (feature 67 <= 71.91)
      If (feature 67 <= 69.3899955)
       If (feature 2 <= 52.829998)
        If (feature 0 <= 36.629999)
         Predict: 68.222094965035
        Else (feature 0 > 36.629999)
         Predict: 67.9229339090909
       Else (feature 2 > 52.829998)
        Predict: 66.8542630909091
      Else (feature 67 > 69.3899955)
       If (feature 105 <= 94.1399955)
        Predict: 70.7777588741259
       Else (feature 105 > 94.1399955)
        If (feature 6 <= 31.409998)
         Predict: 71.6509058601399
        Else (feature 6 > 31.409998)
         Predict: 71.50531157342648
     Else (feature 67 > 71.91)
      Predict: 55.52307444055941
  Tree 71:
    If (feature 132 <= 65.879997)
     If (feature 121 <= 69.479996)
      If (feature 116 <= 55.979997499999996)
       If (feature 108 <= 52.829998)
        Predict: 39.7724456153846
       Else (feature 108 > 52.829998)
        If (feature 51 <= 40.499998000000005)
         Predict: 37.330487983682964
        Else (feature 51 > 40.499998000000005)
         Predict: 37.918320090909106
      Else (feature 116 > 55.979997499999996)
       If (feature 83 <= 40.7699985)
        Predict: 39.3079702097902
       Else (feature 83 > 40.7699985)
        Predict: 40.618320055944
     Else (feature 121 > 69.479996)
      Predict: 45.1434945804196
    Else (feature 132 > 65.879997)
     If (feature 90 <= 80.1899985)
